6926 50
0 0.0 0.0 0.0 0.0 0.0 0.0 0.0 0.0 0.0 0.0 0.0 0.0 0.0 0.0 0.0 0.0 0.0 0.0 0.0 0.0 0.0 0.0 0.0 0.0 0.0 0.0 0.0 0.0 0.0 0.0 0.0 0.0 0.0 0.0 0.0 0.0 0.0 0.0 0.0 0.0 0.0 0.0 0.0 0.0 0.0 0.0 0.0 0.0 0.0 0.0
12 -0.991815 0.601443 1.246506 1.097752 -0.405088 0.651163 -1.787838 0.185848 -0.987847 -0.030425 -1.446746 -0.038802 1.901220 -1.020785 0.822167 0.247267 -0.332411 0.509763 0.022923 -0.215903 -0.559053 -1.066995 -0.113262 -0.180808 -1.867819 -0.247465 -1.049642 0.336791 -0.237817 0.299044 0.342138 -0.949480 -0.795029 -1.021896 -1.470134 0.486899 -0.439382 1.103552 1.143194 -0.029407 0.465307 0.278456 1.599736 -0.736526 1.505853 0.370076 1.506902 0.059619 0.245476 -0.358994
29 -0.350752 1.292306 1.873789 0.984886 -0.334764 -0.002741 -1.443159 0.533353 -1.501460 -0.437157 -1.088833 -0.168899 0.743753 -0.379865 -0.086645 -0.179978 -0.840901 0.050420 -0.068675 -0.438836 -0.001150 -0.544130 0.181855 -0.023587 -1.862760 -0.603192 -0.599500 0.078240 -0.370510 -0.094715 0.302034 -0.599353 0.355597 -0.826976 -1.293101 1.419754 0.001155 0.095044 0.472966 -1.283874 0.392814 -0.150628 0.609036 -0.499465 2.846621 0.369341 1.666453 -0.557038 -0.215157 -0.159817
19 -0.231846 -0.305208 2.556637 0.813745 0.059584 0.478367 -0.035979 0.559537 -0.312594 -0.410204 -0.973021 0.251789 0.730956 0.041990 -0.000134 -0.255625 0.448082 0.688055 1.242830 -1.209620 -0.015452 -0.947249 0.165068 1.037949 -1.679676 -0.150908 -0.809963 -0.141109 -1.124829 -0.147284 0.806881 -0.771176 0.698576 -0.476619 0.072250 0.121969 -0.744736 0.992740 -0.506132 0.378852 0.506387 -0.245448 -0.104045 -0.241148 1.446871 0.001289 2.145909 0.394133 0.677845 0.951633
23 0.149511 0.346342 0.738369 0.403340 0.243186 -0.376973 -1.187959 -0.260107 -0.115527 -0.011604 -1.387751 -0.463710 0.427764 -1.026073 -0.263434 1.039983 -0.312324 0.312944 1.322732 -1.373249 -0.347622 -0.850998 0.017124 0.445282 -1.439177 0.267389 -1.557683 -0.105124 -1.297335 0.052839 -0.218203 -0.829175 0.052828 -1.279591 -0.401790 0.014066 -0.628515 0.859368 -0.036031 -0.137589 -0.253483 -0.493802 0.747221 0.125556 1.397351 1.251803 1.961893 1.476373 0.361059 1.303754
16 -0.275962 -0.044566 2.227370 0.689241 -0.511013 0.715440 -0.322549 -0.480211 -0.616025 -0.406634 -0.689702 -0.505852 0.751316 0.243335 0.286728 0.191102 -0.192651 0.924453 -0.032061 -0.235249 0.505033 -1.110492 -0.459224 0.056546 -0.180884 -0.482773 -0.508457 -0.642489 -0.798696 0.301481 0.042444 0.249254 -0.387430 -0.878544 -0.601052 -0.163131 0.484095 0.636552 1.588717 -0.022607 0.992490 0.186088 1.249724 -0.331712 1.335627 0.490470 2.000641 0.461597 -0.088446 0.234088
11 0.670538 1.118062 1.082808 -0.042739 -0.674923 -0.024981 -1.299495 -0.098502 -0.494459 -0.329895 -1.668427 -1.606908 1.116953 0.384231 0.158662 -1.974125 0.073812 0.428908 -1.087639 -0.913757 -0.946082 -0.862963 -0.505337 -0.566678 -2.063512 0.350976 -0.807116 -0.716423 -0.085474 -0.332591 0.025004 -0.112616 0.234074 -0.769156 -0.109249 1.094331 -0.283830 0.568500 0.779508 0.076025 0.096538 1.270914 -0.345817 0.362939 1.094237 0.650464 1.072792 0.138268 0.293615 -0.101630
10 -0.265891 0.969749 0.875981 0.473883 -0.422364 0.348987 -1.968411 0.235349 -0.209651 -0.010068 -1.145978 -0.933099 -0.033629 -0.470292 0.873034 -0.363996 -0.228989 0.443124 -0.271167 -1.302191 0.054181 -1.060415 0.082546 -0.007788 -2.199350 0.077814 -1.289439 -0.206931 -0.715879 -0.619418 0.331859 -0.246492 -0.024786 -1.277532 -0.432147 0.787995 -0.010155 0.263505 1.177333 -0.650917 0.665185 -0.554975 0.670107 0.150585 1.814426 -0.141577 1.187858 0.034967 -0.175836 0.340777
9 -0.575211 -0.011194 1.316625 0.823932 0.334766 0.511948 -2.095679 -0.145852 0.045710 -0.808853 -1.183737 -0.166975 0.674899 -0.227035 0.660985 0.047584 0.492985 -0.515917 0.871582 -1.683786 0.553846 -0.632153 1.063069 0.385071 -1.760226 -0.247060 -0.546870 -0.000489 -0.646177 0.228562 -0.701960 0.165443 -0.273086 -0.418325 0.478452 0.514225 0.244945 0.377656 0.430001 -0.315691 0.825301 0.841773 -0.018338 -0.095669 1.476930 -0.771339 1.580144 0.891144 1.063713 -0.020054
32 -1.037115 -0.292323 1.624967 0.333308 -0.725049 -0.417629 0.119746 -0.293576 -0.709296 -0.797126 -1.768985 -0.628902 1.039724 -0.189557 -0.533347 0.417062 0.293431 0.516696 -0.147014 -1.570636 -0.347330 -1.152608 0.405355 -0.639824 -0.292782 -0.814501 0.697480 -0.480384 -0.653151 0.565648 -0.787722 -0.288995 -0.524438 -1.399151 0.406501 0.268726 -0.403955 0.956303 0.300930 0.664328 -0.151679 0.330687 0.601937 -0.020979 1.420822 -0.311644 1.771147 0.123939 -0.037969 1.535081
39 -0.893898 -0.201949 1.424765 0.634196 0.200465 0.113292 -1.516306 -0.086528 -0.150602 -0.633752 -1.709707 -0.346485 1.122533 -0.692653 -0.258169 0.874724 0.613955 -0.304048 0.664529 -1.528172 0.429252 0.056127 0.710489 0.138749 -1.302685 -0.284023 -0.698988 0.404270 -0.723223 0.220481 -0.314931 -0.217215 0.010534 -0.354065 0.412527 0.242590 0.279118 0.614411 0.400136 -0.346001 0.400813 0.509562 0.182832 0.059724 1.966438 -0.748382 1.029258 1.337920 0.496276 0.374924
161 -0.092543 0.712538 1.255349 0.378601 -1.209745 0.796602 -2.103636 0.512584 -0.184872 -0.926247 -1.089426 -0.189421 1.094079 0.267530 0.652333 0.277021 -0.721598 -0.665306 0.470148 -0.827685 -0.499994 -0.392125 -0.056135 -1.245533 -1.089558 0.345878 0.193923 -0.790735 0.112692 -0.709322 0.447122 -1.441062 -0.557628 -0.142070 -0.232381 0.738442 -0.152122 0.408287 0.319605 -1.433247 0.679027 -0.680042 1.641013 -0.716459 0.999861 0.066151 1.184589 1.093097 0.813418 -0.155375
48 0.134272 0.197344 2.278827 0.783018 0.658224 -1.114870 -0.224297 -0.661696 0.238007 -0.099585 -0.932193 -0.480017 -0.902034 -0.370195 0.608607 0.461022 0.388883 -1.006858 0.862389 -0.857804 -0.727480 -1.790520 0.818560 0.999518 0.053977 -0.630977 -0.507782 -0.935196 -0.300850 0.314968 1.386001 0.607295 1.320071 -0.905916 0.287321 -1.418036 -0.321464 0.195533 1.090765 0.171499 -0.583986 0.958908 0.003876 -0.770637 -0.358354 0.297953 0.257881 0.596432 0.686063 1.199656
126 0.008977 0.435657 1.467429 0.550730 0.058832 0.117724 -0.561306 -0.240698 -0.792500 -0.026816 -1.348736 0.141774 0.478514 0.506078 0.782375 -1.250719 -0.224220 1.202976 1.348568 -1.031690 -0.188917 -1.354431 0.402323 -0.795084 -1.556208 -0.202328 -0.023975 0.281706 -0.247938 -0.509520 0.755794 -0.572900 1.197535 -0.202166 0.168704 -0.533669 0.218943 1.326153 0.594809 -0.301142 0.487877 -0.003003 1.067246 -0.213030 1.510479 0.275720 1.487631 0.036570 -0.310507 -0.049836
243 0.097031 -0.334300 0.872010 1.005212 -0.481266 -0.000754 -1.475184 -0.256545 -0.192777 -0.453115 -1.791770 -0.474630 -0.450080 -1.193329 -0.496839 -0.452201 -0.355931 0.469581 -0.882695 -0.325817 0.246670 0.012572 0.396893 0.126218 -1.078568 -1.118294 0.223787 -0.452537 -1.691086 0.172656 0.035736 -0.967375 0.411566 -1.257175 -0.946307 0.200465 0.316050 1.010907 1.043121 -0.526453 -1.766479 0.206482 1.271665 -0.676450 0.986060 0.672313 0.736179 0.053718 0.592135 0.124989
43 -0.709642 -0.643202 1.714197 0.192864 0.043010 0.212905 -1.030675 -0.077713 -0.659313 -0.409506 -1.722323 -0.145760 1.619889 -0.698592 -0.349515 1.104658 0.735612 -0.149234 0.862912 -1.054235 0.021248 0.295529 0.256998 0.207721 -0.679262 -0.514147 -0.399119 0.396142 -0.502932 0.136583 0.196256 -0.463996 0.217020 -0.364310 0.436874 0.153583 0.339157 0.904912 0.263216 -0.021461 0.333600 0.493313 0.035834 0.299320 1.857514 -0.660263 1.138247 1.374673 0.381879 -0.069636
106 -0.640035 1.274450 1.472221 0.371384 -0.292094 0.138909 -1.733278 0.523026 -0.683185 -0.209322 -0.801470 -0.425178 0.779272 0.024751 -0.070468 -0.205259 -0.737276 0.795638 0.139675 -0.122601 -0.675568 0.035098 -0.023167 0.132298 -1.300130 -0.365725 -0.423360 0.375916 -0.629934 -0.301100 0.797008 -0.897521 0.191551 -0.265294 -0.493010 0.857680 0.774470 0.990604 0.593851 -0.646730 0.834258 0.811898 0.910196 -0.006566 1.513179 -0.355937 0.545278 -0.723596 -0.238157 -0.498564
5 -0.294563 0.753224 2.068664 0.087816 -0.795702 -0.320536 -1.334366 -0.094231 -1.057820 -0.660524 -0.609639 0.736840 0.430812 0.885400 -1.389873 -0.167707 -0.579190 0.632734 0.819377 -0.167655 -0.029998 0.180610 0.099652 -0.079968 -0.782538 -0.351114 -1.124970 -1.343494 -0.175922 0.529621 0.488187 -0.109397 0.201829 -1.132006 -0.966370 0.451482 -1.341909 -0.410754 0.421113 -0.591430 0.593335 -0.436226 0.963437 -0.273844 0.460169 -0.411759 0.919778 0.217409 0.744695 -0.290020
6 -0.320127 0.268596 1.518769 -0.189497 -0.782973 -1.345414 -1.393814 0.011778 -0.796848 0.116425 -0.327866 0.189608 1.065660 -0.329933 -1.290705 -0.516244 -0.221462 0.961260 1.139265 -0.301060 -0.716420 -0.312045 0.313284 0.890150 -0.435610 -0.106782 -0.348619 -0.025903 0.368154 0.769515 -0.070240 -0.989741 0.682070 -1.543901 0.214275 0.218955 -0.673515 -0.347256 0.199469 -0.428595 0.823004 0.103509 1.124070 0.196933 1.303220 0.323364 1.728038 0.309290 0.982176 -0.113143
8 -0.170347 0.460213 1.075027 0.585591 0.039980 0.625387 -1.591944 -0.058102 0.377366 -0.705093 -0.385274 -0.120902 -0.667253 0.273797 0.936474 -0.675959 -0.030836 -0.805521 0.303551 -1.172164 0.309981 -1.014802 1.318894 0.490513 -1.765373 0.021522 -0.101925 -0.478109 -0.416995 -0.128232 -0.630275 0.404841 -0.218363 -0.081384 0.270810 0.668282 0.240460 0.079302 0.548660 -0.188103 0.709550 0.761381 -0.032163 -0.075107 0.542270 -0.593811 1.789591 0.325122 1.056660 0.177065
72 -0.336190 0.551016 2.016260 1.226495 -0.562328 0.088883 -0.680307 0.369580 -0.576050 0.817227 -0.372597 0.127262 0.951392 0.108148 -0.822718 0.145314 -0.042582 0.578343 0.164843 0.905091 -0.353104 0.186073 0.507540 0.542216 -1.029819 -0.071477 0.399552 -0.244987 1.305307 0.134781 0.734914 -0.634504 0.181710 -0.295764 -0.856775 0.177189 -0.920072 -1.364698 1.333362 -0.931830 1.226216 -0.163797 0.249452 -0.201349 1.145656 0.543524 1.336925 -0.604771 0.275536 -0.472282
13 -0.098186 -0.504731 1.648126 1.532115 -0.776287 1.454219 -2.192241 -0.794524 -0.279199 -0.429476 -0.246579 -0.492868 0.827509 -0.116246 -0.288542 0.508841 0.650729 0.420356 -0.335983 -0.701443 0.789186 -1.287233 0.838251 -0.297142 -0.366772 -0.145967 -0.564071 -0.236298 0.099244 -0.435089 0.474055 0.022337 -0.660768 -1.609007 -0.769599 -0.047269 0.228929 -0.433175 0.863096 0.309081 0.854414 0.409776 0.700412 0.295681 0.620702 -0.161111 1.205851 -0.037221 -0.480503 -0.241639
283 -0.540936 0.219472 2.120808 1.337864 0.734563 -0.958524 -0.060686 -0.540787 1.031034 -0.925842 -0.893766 -0.154951 -0.056054 -0.250310 0.109269 0.519759 0.370999 -0.724711 1.151015 -0.940240 0.379382 -1.242954 0.452597 0.180257 -0.327783 -1.180492 -0.334079 -0.675009 0.607896 -0.172607 -0.802790 0.745574 2.032095 -0.262696 0.316117 -1.108236 -0.712006 -0.023267 0.404850 0.194776 -1.115915 0.578859 -0.592903 0.079582 -0.009257 1.044366 1.495147 0.867632 0.301869 0.949474
66 -0.028063 0.220624 -0.028284 0.477521 -0.060960 -0.062388 -1.138355 -0.690486 -0.900774 -0.528933 -1.410570 -0.174329 0.625137 -0.631224 -0.042049 -0.389715 -0.073089 0.453923 0.726113 -1.090324 -0.677514 -0.719716 0.546490 -0.298515 -1.387330 -0.147677 0.266418 0.051818 -0.279571 -0.238537 0.152129 -0.396756 0.491346 -0.775997 0.201717 0.054175 0.069438 0.548898 0.172926 -0.015897 0.115510 0.291707 1.128930 0.107881 1.292378 -0.284175 1.102758 -0.215211 0.725913 -0.515827
282 -0.628387 0.221282 2.078886 1.417746 0.736477 -0.923998 -0.199795 -0.643034 1.011748 -0.959201 -0.856206 -0.333330 -0.105333 -0.199195 -0.135212 0.674045 0.282582 -0.791116 1.154679 -0.962779 0.607075 -1.092014 0.439131 -0.178476 -0.281888 -1.225260 -0.230930 -0.597503 0.509146 -0.312649 -1.196803 0.729639 2.029913 -0.328793 0.389836 -1.290183 -0.544585 -0.069539 0.260912 0.147158 -1.212853 0.260142 -0.500701 0.222594 0.047514 1.154049 1.592441 0.937656 0.003382 0.944099
370 -0.534448 0.182090 1.433740 0.257634 -0.093812 -0.433019 -1.329761 0.150428 1.268944 -0.138329 -0.944186 -0.455031 -0.586870 -0.226417 -0.171807 -0.379180 -0.200944 -0.155614 -0.392606 -0.934945 -0.133202 -1.002880 0.571139 0.358846 -0.810464 -0.883412 -0.546241 -0.000853 0.260026 -0.115853 -0.464717 0.324345 1.293705 -1.931957 -0.047835 0.059144 -0.120063 0.061409 0.210412 0.599465 0.346905 0.838913 -1.110794 -0.302293 -0.193342 0.069443 1.623852 0.047457 0.453842 1.130010
459 0.049151 1.039575 1.669016 0.664617 -0.452455 -0.327080 -1.755483 -0.496744 -0.496923 -0.306371 -0.980277 -0.164853 0.379657 -0.283221 -0.272347 -0.337063 0.040176 0.176833 -0.372427 0.093889 -0.207191 -0.551317 -0.328498 -0.147713 -1.498763 0.396278 -1.259034 0.824003 -0.942544 0.469647 0.420993 -0.672108 -0.346763 -0.535743 -0.290981 0.782095 0.153680 0.741982 0.706833 -1.161569 0.111086 0.112040 -0.725159 -0.057206 1.079613 0.310858 0.612124 -0.140616 -0.015882 -0.579170
28 0.005281 0.974336 0.325637 0.311814 -0.502217 0.230410 -1.676522 -1.196196 -0.698809 -0.597254 -1.496220 0.410206 1.033138 -0.812480 0.001764 0.047486 0.096916 0.349767 0.095253 -0.716792 -0.330781 -0.444927 0.663784 0.014125 -1.519064 0.181690 -0.116297 0.210063 -0.011892 0.475465 0.247054 -1.035274 -0.195111 -0.441811 -0.595929 0.398132 -0.471084 0.237420 -0.362160 -1.016053 0.145883 0.140459 0.982424 0.032731 0.767566 0.134466 1.108193 0.784806 -0.228683 -0.345272
317 0.695536 1.189012 1.102037 -0.373141 -0.583230 0.483470 -0.457420 -0.292764 -0.852794 -0.375048 -1.190145 -0.442102 0.428268 0.348065 0.688454 1.030079 -0.279039 0.055440 -0.821350 -1.697182 0.665651 0.008523 0.308813 -0.484151 -1.306541 -0.845135 -0.408688 0.100257 -0.154098 0.016750 0.156896 -0.075675 -1.318460 -0.639648 -0.051954 0.144282 -0.171918 0.333155 1.289096 -0.617377 1.097903 0.671902 0.833576 -0.568086 0.431706 -0.415467 0.788892 0.750901 0.720241 0.168096
62 -0.305446 0.270223 1.105179 0.998242 0.776238 0.064628 -1.114523 0.206809 -0.008627 -0.597619 0.474897 0.360038 1.740021 -0.952641 0.568825 0.500039 0.699127 -1.164413 -0.475672 -0.451655 -0.559733 0.867265 0.073789 0.915338 -0.473132 -0.530455 -0.605039 -0.120826 -0.989732 -0.005408 -0.242976 -0.483373 0.336558 0.642605 -1.104468 1.252404 0.289127 -0.306111 -0.299958 -0.528616 0.540996 0.168792 1.268721 -0.509133 2.353699 0.563441 0.999811 1.301702 1.207955 -0.179817
247 0.397259 0.461080 0.941361 -0.446864 0.119338 -0.052704 0.205078 -1.566869 -1.292031 -1.200281 -0.919082 1.103159 -0.134596 0.274263 -0.687888 -0.881238 -0.168805 -0.517019 0.114150 0.651203 -0.077980 -0.021300 0.619943 -0.957730 -2.311956 -0.061102 -0.821257 -1.038717 -1.012340 -0.731278 0.829446 -0.310392 -0.288841 -0.272179 -0.206775 0.650625 -0.045917 1.570717 0.832110 0.434035 0.233979 -0.396100 0.715881 0.732462 1.122789 -1.208064 1.290910 1.550789 0.425010 -0.080387
76 -0.578515 0.433635 0.342855 0.500088 0.105476 0.112644 -1.353176 -0.405623 -0.519102 -0.652654 -1.189094 -0.136734 1.127426 -0.870432 0.871143 -0.672695 0.140359 0.255366 -0.059330 -0.803377 -0.022480 0.038325 1.001258 -0.268825 -1.131245 0.162831 0.309888 0.232938 -0.449242 0.460156 0.231091 0.032256 -0.487939 -0.976549 0.150189 0.632850 0.185215 1.028865 -0.171956 -0.150855 -0.177190 0.865431 1.153509 -0.597092 1.116537 -0.171585 1.076454 0.163118 1.024677 -0.435621
140 -0.659728 0.182308 1.702311 0.901481 -0.068750 -0.498429 -1.464822 -0.151574 1.054393 -0.282919 -0.795424 -0.134520 -0.460772 -0.072349 -0.539226 -0.526655 -0.143766 -0.126967 -0.096063 -0.750022 -0.315479 -1.229645 0.436168 0.266816 -0.823189 -1.150809 -0.649523 0.144785 0.040245 0.208978 -0.810925 0.078422 1.469735 -1.272464 -0.275870 -0.034685 0.332768 0.210011 0.023215 0.471333 0.555664 0.564000 -1.096202 -0.263726 -0.163608 0.201950 1.704120 0.153691 0.300957 0.801926
50 0.431303 0.675575 1.634512 0.873883 0.724384 -1.099686 -0.700504 -0.793203 0.194443 0.064590 -1.069768 -0.757953 -1.049291 -0.165314 0.449093 0.365067 0.457937 -0.543537 0.467178 -0.652932 -0.738835 -1.775727 0.848038 1.099207 0.167137 -0.484463 -0.236180 -0.900040 -0.685663 0.282397 0.355503 0.464159 1.526099 -0.766200 0.440658 -1.694496 -0.236421 0.046275 1.105933 0.285378 0.098774 0.610714 -0.612922 -0.483283 0.083102 0.136398 0.199535 0.232842 0.604289 1.126912
46 -0.191762 -0.140677 2.079520 0.494125 0.902449 -0.685430 0.262826 -0.554757 0.221046 0.270496 -0.819811 0.033371 -0.949008 -0.967299 0.778271 1.018040 0.297639 -1.413679 0.753356 -1.163580 -0.038631 -1.516839 0.819127 0.608543 -0.192348 -0.693424 -0.420463 -1.004671 0.168686 0.539391 1.676064 0.783198 1.116522 -0.612872 0.203645 -1.040331 -0.845777 -0.142230 1.259890 0.186985 -0.895088 0.851937 0.674163 -0.556759 -0.108884 0.149365 -0.048866 0.324353 0.749065 0.683954
276 0.830697 0.951014 1.679342 0.125433 -1.070129 0.650730 -0.907440 -0.550102 -1.018882 0.456747 -1.238614 0.118043 0.670861 -0.144383 -0.351460 -1.098516 -0.091629 0.791870 -0.044324 -0.507454 -1.069282 -0.452827 -0.481650 0.267483 -1.172374 -0.178963 0.300433 -0.401547 0.802801 1.297257 1.226494 -1.339763 -0.022141 0.463433 -0.030547 0.447166 -0.380590 -0.425630 -0.175393 -0.550625 0.884509 0.173569 0.333330 0.282139 0.708013 0.314116 1.104866 0.215508 0.080174 -1.040381
169 -1.004066 0.143714 2.256374 1.282624 -0.843051 -1.558420 -0.522669 -0.476558 -1.028301 0.217655 1.031178 0.078497 -0.095187 -0.031111 -0.050654 -1.130820 -0.358719 0.237777 0.377280 -0.752284 -1.769844 0.932527 1.124844 0.004304 -1.641402 -0.895510 0.282789 1.007684 -1.011324 -0.154660 -0.559650 0.490958 -0.491589 -0.219130 -0.448535 0.426072 0.668102 0.018201 0.923628 -0.179977 0.888095 -0.085030 1.488630 -0.867708 0.256664 0.474469 1.523480 0.367447 0.647251 0.838556
80 -0.357414 0.092314 0.959030 -0.210308 -0.628484 0.013061 -0.934122 0.110831 -0.042069 -0.788898 -1.487602 -0.714958 0.809848 -0.381143 0.091846 -0.336231 0.370830 -0.449311 -0.818297 -1.151031 -0.828201 -1.502185 0.407981 -0.708181 -0.718768 -0.499327 0.835786 -0.833332 0.339546 0.065996 0.220384 -0.441326 -0.199520 -1.298725 0.642071 1.168721 -0.201618 0.413555 0.068943 -0.203236 -0.377740 0.880048 0.658097 -0.055107 1.776726 -0.428338 1.228957 -0.448399 0.158296 0.918576
47 -0.102801 -0.143230 2.025034 0.504005 0.477181 -0.688555 0.125931 -0.648503 0.427466 -0.053799 -1.113718 -0.056107 -0.777792 -0.906954 0.546942 0.680816 0.359396 -1.482619 0.844103 -0.902994 -0.460866 -1.479034 1.030207 0.810865 0.491163 0.012575 -0.796932 -0.912549 -0.078962 0.433279 1.923110 1.043173 1.026807 -0.340851 0.507019 -0.771306 -1.091597 0.163612 0.990822 0.287782 -0.509428 1.255042 0.296129 -0.506044 -0.126989 0.403051 0.374423 0.755286 0.156749 1.029806
59 0.156026 0.554089 0.133148 -0.109369 -0.265028 0.274308 -0.910209 0.625946 -1.470617 -0.388090 -0.689382 -0.892956 0.539012 -0.479873 -0.497580 0.202558 -1.212941 1.297405 1.149131 -1.324094 0.479051 -0.294515 0.283695 -0.063066 -0.199268 0.224582 -0.372702 0.457213 -0.692635 0.471844 0.100928 -0.699682 -0.767229 -1.477744 -0.270577 0.915779 -0.930875 0.808551 -0.100120 0.402978 0.328748 0.420381 -0.114891 -0.874682 0.540672 0.225494 1.901803 0.422841 0.772347 0.672097
202 -0.005272 0.162706 1.134242 0.798106 -0.244518 0.726995 -1.970688 0.352429 0.459364 -0.459000 -0.180963 -0.171816 -0.190241 0.051696 0.635245 -0.595416 -0.010705 -0.646872 0.028853 -0.729015 0.058471 -1.168417 0.938928 0.578156 -1.178788 -0.029688 -0.468090 -0.599260 -0.183433 0.067596 -0.489838 0.045215 -0.391028 0.025961 -0.103456 0.517751 0.228243 -0.137225 0.533890 -0.314415 0.581013 0.756545 0.465625 -0.271108 0.274185 -0.505197 1.368103 0.238488 1.042936 -0.023858
300 0.044604 0.604579 1.378551 0.361956 -1.205175 0.934715 -1.290433 0.321585 -0.003394 0.030479 -0.854909 -0.746083 0.610857 -0.247221 -0.328418 0.416177 -0.472408 0.098464 0.008543 -0.690611 -0.398320 0.115899 0.176063 -0.940246 -0.540182 0.608419 1.159695 -0.833270 0.216339 -0.504380 1.222152 -0.409495 0.033278 -1.487631 0.904121 -0.294491 -0.322229 -0.548112 0.529987 -1.112664 1.571767 -0.933810 -0.244465 -0.899605 0.616747 0.553757 1.695706 0.119085 1.749112 -0.014368
217 0.188702 0.725783 0.138303 -0.182985 -0.207336 0.238262 -1.795464 -0.882713 -0.148697 -0.504342 -0.892806 0.226366 0.599950 -0.440851 -0.542985 -0.310118 -0.624530 -0.103737 -0.414558 -1.101132 -0.635463 -0.482626 0.092448 -0.001932 -2.021342 -0.264036 -0.227867 -0.213235 0.016513 -0.389117 0.856428 -1.133444 -0.304975 -1.005463 -0.873760 0.929069 -0.213522 -0.564038 0.150767 -0.875039 0.791991 0.072499 0.026385 -0.116884 1.172299 0.293721 0.943838 0.749245 -0.358438 -0.258792
45 -0.181612 0.521296 2.251777 0.705373 0.740651 -1.339193 -0.015285 -0.503860 0.091083 -0.424664 -0.645008 -0.411408 -0.571896 -0.388084 1.209848 0.578975 0.068480 -0.890677 0.622247 -0.774733 -0.493187 -1.474133 0.396398 0.935118 0.625841 -0.346565 -0.677198 -0.551394 -0.516012 0.310847 1.491327 0.509082 1.036657 -0.291781 -0.066067 -0.530874 -0.985845 0.038424 1.411204 0.326506 -0.389771 1.378684 0.954170 -0.598425 -0.239587 0.560557 0.055799 0.438164 0.306005 0.961988
127 -0.190472 0.067480 -0.321549 -0.122365 -0.329499 -0.301164 -2.047763 0.002808 0.322036 -0.931978 -1.336340 0.142662 0.871077 -0.362678 -0.225812 -0.056339 0.147987 0.595222 0.779009 -1.101486 0.086646 -0.289956 0.464169 0.458005 -1.573431 -0.381224 0.279884 -0.350680 -0.051184 0.163762 -0.315347 -0.210083 0.231508 -1.165098 -0.557502 0.267193 -0.798674 0.322469 0.206840 -0.771392 0.650003 -0.199680 1.200231 0.116899 0.534522 0.074662 1.470297 0.639719 0.008578 0.019764
134 -0.739830 -0.570439 1.542921 0.482103 -0.334232 -0.133893 -0.656057 0.373021 -0.482403 0.869950 -0.639322 -0.345863 -0.940656 -1.098350 -1.285325 -0.767229 -1.242818 -0.834585 -0.700675 -1.202127 0.340784 0.175132 0.566139 -0.386168 -2.225142 0.185113 -0.937414 -0.287204 0.099429 -0.070652 0.024121 0.114904 0.216729 -0.115846 0.063965 0.016746 -0.147580 -0.721876 1.780989 0.308276 0.213322 0.507017 -0.928642 -0.354593 0.496538 -0.350351 0.954235 -0.105652 0.084778 0.229443
426 -0.331776 0.138925 1.028295 0.700135 0.267891 -0.505009 -1.593671 -0.223216 1.101617 -0.252697 -0.652002 -0.196529 -0.194792 -0.074321 -0.175938 -0.652605 -0.052978 -0.142577 -0.435791 -0.923056 0.013597 -1.160062 0.675329 0.261707 -0.583100 -1.069900 -0.378350 -0.167057 0.023875 -0.190891 -0.674318 0.421136 1.649952 -1.567982 0.052250 0.176935 -0.056165 -0.299957 0.011409 0.334608 0.114774 0.595467 -0.971973 -0.042942 0.027504 0.302051 1.403586 -0.200188 0.416903 0.717342
431 -0.375047 0.446379 0.730697 1.212670 -0.025573 0.629616 -1.492881 -0.738198 -0.432950 -0.582540 0.188844 -0.281968 1.121910 0.581884 -0.320700 -0.371474 0.163777 0.409760 0.190648 -0.901168 0.028711 -1.411723 -0.097225 -0.058961 -0.793807 -0.855516 -0.224780 -0.441956 -0.211021 -0.525098 -0.000708 0.067152 0.215940 -1.234424 -0.750195 0.290690 0.344194 -0.413755 0.573257 -0.213166 0.744315 0.030923 0.600202 -0.403737 0.756049 0.172457 1.096780 0.813430 -0.207342 -0.311322
536 0.178106 -0.524843 0.835653 -0.039770 -0.696631 0.768861 -1.076481 -0.741847 -0.699318 -0.637960 -0.549669 0.101958 1.325106 0.777472 -0.639940 -0.462496 1.527755 0.380832 -0.212893 -0.023593 -0.635878 -0.266746 0.091018 -0.269035 -0.400400 1.068818 0.289068 0.257172 -0.925546 -0.227779 -0.872815 -0.436117 -0.673694 0.449057 0.120719 0.295333 1.219718 1.674863 1.492711 -0.083764 1.386808 1.709139 1.411382 0.516568 2.052802 -0.556078 0.337022 -0.112062 -2.602156 0.272979
67 -0.700061 -0.338446 1.513714 0.481812 -1.046917 -0.270453 -1.226021 1.490704 -0.032770 0.764859 -0.703878 -0.662713 1.046762 0.768441 0.145559 -0.257173 -0.279490 0.549516 0.805741 -0.935773 0.363177 0.536896 -0.621440 -0.271293 -0.975872 -0.429155 0.550009 0.312120 0.300758 -0.531588 1.489973 0.397952 0.310357 -0.218285 0.098309 0.956936 -0.567684 0.495080 1.487178 -1.185229 1.236405 -0.401222 1.561082 0.179991 0.963601 -0.191522 0.303713 -1.053761 0.753927 0.001838
230 -0.819889 0.839802 2.190678 0.496111 0.241552 0.768084 -0.487656 -0.847304 1.378330 -0.135999 -0.913652 -0.118266 -0.363413 -0.448426 -0.039747 0.176997 0.558748 0.175295 -0.649614 -0.858971 -0.640848 0.015936 0.017535 -0.691207 -0.098505 0.364595 0.904338 0.191703 0.015660 0.183156 0.669756 0.508453 0.725888 -1.750392 0.666755 -0.167892 -1.264905 -0.638294 1.356463 -0.311205 0.747940 0.258113 -1.047078 -0.843307 0.190770 0.779433 1.802513 -0.646416 0.548721 0.774828
447 -0.207289 0.541600 0.250983 0.953861 -0.350915 -0.077016 -0.478432 0.978893 -1.111075 -0.416679 -0.266137 -0.001998 0.969112 0.887626 0.713561 -0.689653 -0.778383 0.679671 0.582781 -0.894364 -0.232941 -0.262421 0.001339 -0.840811 -0.936206 -0.033930 -0.045303 1.103550 -0.921467 -0.490461 -0.025178 -0.852106 -0.550612 -0.650353 -1.156271 0.044954 -0.206159 0.756422 0.727926 -1.083132 0.859426 -0.021538 0.947144 -1.621824 1.161011 0.403657 0.783254 0.372869 -0.516904 0.830374
133 -0.535022 0.522104 2.012109 1.160318 -0.095324 0.091052 -0.305866 0.737557 -0.080289 0.785851 -0.266722 -0.573727 -0.890896 -0.924967 -1.103097 0.000174 -0.872591 -0.150968 -0.920936 -0.666588 0.209468 0.619952 0.315010 -0.147521 -1.940286 0.298460 -0.463042 0.154962 0.026947 0.208110 -0.279309 -0.148762 0.188789 0.000286 -0.067324 -0.033316 -0.390774 -1.158300 1.575118 -0.336470 0.737790 0.558465 -0.412051 -0.605311 0.611127 0.391439 1.371727 -0.342362 0.497149 -0.039425
24 -0.085593 0.012584 0.714045 1.364935 0.638798 -0.483644 -0.081756 0.846042 -0.788741 -1.146950 -0.843660 -0.737415 0.377753 -1.165208 0.615454 0.111638 -0.896940 1.671163 0.283671 0.131384 0.395273 -0.104737 -0.248495 0.334219 -0.052578 0.482872 -0.842709 0.690434 -0.726685 -0.271264 0.003915 -1.898831 -0.163895 0.275355 -0.921306 0.133282 -1.088030 -0.370693 0.182834 0.619506 -0.219433 0.415449 1.570846 -0.593146 0.387232 0.879272 2.240314 1.017238 -0.219808 0.037103
52 -0.461910 0.733718 1.197563 0.326365 -0.099119 -0.559444 -1.241028 -1.296957 -0.958608 -0.294646 -0.903015 0.441404 0.616349 0.379780 -0.542498 0.066977 0.114389 0.434971 0.945582 -1.256599 -1.382772 -0.517770 0.841799 -0.621533 -0.329234 0.987145 -0.831051 -0.807693 -1.345921 -0.013364 -0.350237 0.866088 -0.579729 -0.752379 0.361056 -0.589491 -1.559929 0.859752 0.520113 0.127305 -0.190902 0.039782 -0.751773 -0.077705 0.250535 1.279181 0.153869 -0.805282 0.143145 0.761106
522 0.545479 0.605781 1.618415 0.973124 -0.747524 0.720910 -1.193352 -0.079275 0.101266 -0.291998 -1.625970 -0.160339 0.121580 0.360988 -0.606413 -0.406093 0.407255 0.200825 -0.273590 -0.024746 -0.460258 0.185300 -0.196277 -0.141229 -1.020161 -0.316142 0.705364 0.052139 0.413238 0.199079 0.588273 -0.893023 0.513428 -0.396458 -0.417588 0.880992 -1.890336 -0.444556 0.155195 -0.935812 0.604180 -0.241011 0.962677 0.075389 0.464855 -0.698275 0.875694 0.369640 0.491439 -0.228384
533 0.273665 0.010154 -0.065716 0.468939 0.519878 0.183390 -1.081903 -0.359397 -0.820439 -0.683517 -1.377357 -0.162168 0.845511 -0.674063 0.467559 -0.070539 0.066333 0.343039 0.314210 -0.603880 0.118089 0.235409 0.599655 -0.837663 -1.234427 0.312462 0.189889 0.235105 -0.081687 -0.305134 -0.118952 -0.374773 0.410143 -0.223151 0.151531 0.040796 -0.332145 0.716084 0.167986 -0.239332 0.257682 0.469550 1.477520 -0.539250 1.701133 0.297321 0.841617 -0.076659 0.982063 -0.834802
227 0.126280 -0.156573 1.502980 0.053299 -0.260759 -0.282893 -0.625691 -0.678110 -1.478519 -0.293500 -0.091465 0.964629 1.767729 0.258015 -0.631336 -0.894897 0.513963 -0.834104 -0.095765 -0.590455 -0.076549 0.246624 -0.092024 -0.649874 -0.794452 -0.231576 -0.435454 -1.474752 -0.659909 0.262813 -0.092778 0.114358 0.570040 -1.206264 0.475414 0.616196 -0.601441 -0.453345 0.693924 0.936868 0.433161 -0.674880 0.209392 0.466034 2.052240 -0.110797 0.067774 0.447989 0.085636 -0.477204
251 -0.371532 0.593793 -0.723052 0.152871 0.008368 0.365882 -0.178522 -0.274871 -1.113375 0.645118 -0.713484 0.583194 0.242045 -0.109401 0.073291 -0.341595 -1.112867 1.325607 0.825307 -1.288773 -0.460159 -1.111512 -0.132904 -1.161821 -2.284363 -0.437181 0.439994 0.052449 -0.697607 -1.078616 0.690318 -0.191792 -0.184451 -0.735654 -0.289281 -0.301855 0.275113 1.459110 0.514457 0.083103 0.449137 -0.978464 0.244488 0.147516 0.765473 0.331928 0.769424 -0.860109 -0.206039 0.365997
432 -0.432527 0.510935 1.088035 1.334833 -0.116015 0.634193 -1.671460 -0.823200 -0.623187 -0.256445 0.344216 -0.155235 1.282439 0.658140 -0.941020 -0.212144 0.051362 -0.125370 -0.132106 -0.526657 -0.287960 -0.704304 0.105662 0.106337 -0.025297 -0.900623 -0.241788 -1.129614 -0.625239 -0.123055 -0.050493 0.182453 0.292689 -0.826542 -0.744691 0.780532 0.069088 -0.948964 0.648550 -0.251341 0.510858 0.103439 0.319753 -0.488210 0.822795 -0.014560 0.732045 1.251805 -0.109793 -0.714312
226 -0.021808 0.738215 2.359495 1.267295 0.597667 -0.447426 -0.483445 -0.767230 0.303198 0.223777 -0.161845 -0.772553 0.175670 0.523982 -0.395610 1.039370 -0.052215 -1.072132 0.882599 -0.276094 -0.464541 -1.090863 -0.000367 0.630704 1.104688 -0.694134 -0.293099 -0.494391 -1.090982 -0.640530 -0.101128 0.607119 1.234104 -0.888698 0.150425 -0.182199 -0.759795 0.266109 0.906197 1.548818 -0.576402 0.786420 -0.727179 0.353230 -0.024152 -0.149026 -0.307376 0.418622 0.696938 1.257378
253 -0.031671 0.341657 0.391930 -0.183968 -0.631806 -0.005438 -0.907673 0.319352 -0.492456 -0.439675 -1.106993 -0.551030 0.985999 -0.406232 0.101377 0.151412 0.032831 0.290577 -0.427575 -1.619465 0.537002 0.066440 0.233538 -0.413325 -1.540922 -0.728290 -0.367643 -0.848976 -0.439335 -0.208991 -0.028315 -0.400205 -0.151706 -1.405949 0.371175 0.460411 -0.321988 0.136735 0.363864 -0.266099 -0.294692 -0.161084 1.473564 0.227847 0.657803 -0.350863 0.620054 0.663252 -0.393941 -0.227064
453 -0.010663 0.724649 0.738228 0.633693 -0.253356 -0.379882 -1.088705 -0.880023 -0.358464 -0.543854 -1.125705 -0.576316 0.674191 -0.189692 0.638058 -0.147433 0.390751 0.640054 -0.028609 -0.468786 -0.309963 -1.092515 0.427031 -0.636404 -0.822156 0.048484 -0.496825 -0.147209 -0.936453 0.014569 0.008524 -0.242880 -0.754572 -1.111758 -0.073473 0.382674 -0.133716 0.783535 0.201072 -0.555181 -0.357128 -0.441899 0.733793 0.206542 0.964230 0.431108 0.703681 0.278846 -0.419617 0.693731
168 -0.874143 0.442528 1.414138 -0.006439 0.287514 0.476146 -1.161252 0.437030 0.378891 -0.767533 -2.016012 0.251345 -0.737636 -0.054209 0.411918 -0.699707 -0.375201 1.410876 0.634565 0.734716 0.098082 0.753741 0.132575 -0.669468 -1.071237 -0.349836 0.412246 0.387584 -0.027141 0.168634 0.537782 -0.188238 0.162453 -0.798714 -0.162572 0.792961 -0.611251 0.579823 0.547933 0.012780 0.533447 -0.509038 0.727562 0.074703 0.594016 -0.738967 1.946338 -0.373728 -0.721832 -0.121972
358 -0.310875 0.815950 0.827735 1.352593 0.549945 -1.233923 -0.809370 -0.000214 -0.021460 -0.475587 -1.339819 -0.501809 -0.322243 -1.168059 1.699545 -0.418203 -0.478999 -0.688798 0.626990 -0.407559 -0.249928 -0.895809 1.331466 0.423352 0.746320 0.705838 -1.067367 -0.290790 -0.334114 0.296898 1.089969 0.636909 1.917699 0.063491 -0.068577 -1.032491 -0.501153 -0.062757 0.462818 0.909266 1.134789 0.621443 1.029133 -0.881232 0.592758 0.767379 0.389363 0.734485 -1.202909 0.330932
25 -0.191549 -0.246166 1.196572 0.941669 -0.598444 -0.389214 -0.326618 0.042392 -0.500946 -0.805361 -1.717616 -1.031520 0.297965 -0.548789 -0.672763 -0.503791 -0.061853 1.002021 0.391232 -0.131049 0.094884 0.816488 -0.225555 0.177330 -0.051621 -0.659093 0.033325 -0.023377 -1.065299 0.498021 -0.639251 -0.250318 1.228959 -1.024310 -0.274407 -0.151398 -0.778343 0.800423 0.354830 0.752543 -1.350392 0.448168 1.460409 -0.077554 -0.393840 0.234614 1.106808 0.742857 0.551701 -0.483599
629 -0.108372 0.564729 0.179567 0.999682 -0.195907 1.320058 -0.996578 0.332915 -0.009220 0.003656 0.144792 -0.366253 1.141004 0.060400 -0.596904 0.108128 0.376902 0.336077 1.093624 -0.132658 0.901928 -0.700665 0.790778 0.644571 -1.073499 -0.225166 -0.390291 -0.198349 -1.240770 -0.001235 0.051224 -0.114214 -0.869056 0.284750 0.321192 0.836873 1.499299 0.300749 0.294629 -0.398593 -0.239527 1.350803 0.873085 0.825034 1.462023 -1.093959 1.105876 0.743278 -0.419257 -0.854349
176 -0.721109 0.017191 1.905279 1.270465 -0.430129 -0.169023 -0.524069 0.570589 -1.036375 -0.190593 0.253589 0.714703 0.228442 -0.866218 -1.229580 0.109372 0.269502 0.263169 -0.895287 0.871884 0.624968 -0.266735 0.625486 0.213215 -1.294627 -1.010101 -1.041361 -0.120002 0.269895 0.352184 0.112648 0.228854 0.111851 -0.208702 -0.529091 0.247594 0.193258 -1.141228 0.861768 -0.861440 0.219250 0.094564 -0.231886 0.011264 0.548201 -0.510776 1.690092 -0.237368 -0.034051 -1.200948
272 -1.010399 0.895960 1.293464 0.749859 -0.075049 -0.226649 -0.044527 -0.412243 -0.785973 -0.514429 -0.576007 -0.525899 -0.071950 0.297821 0.071115 -0.104987 -1.614674 0.141935 0.607464 -0.500765 0.161486 -0.595285 0.224197 -0.409724 -0.164415 0.377676 -0.864446 0.024680 -0.628605 -0.599181 0.569362 -1.199381 0.097388 -0.891219 -0.565627 -0.383906 0.996329 0.244292 0.188887 0.253949 -0.036317 0.927392 0.897355 -1.032807 0.492678 -0.046973 0.578602 1.383689 -0.305300 -0.052980
267 -0.379796 -0.162625 0.877748 0.887308 -0.027118 0.138863 -1.349848 -0.625945 0.316915 -0.865408 -0.803788 -0.785290 -0.151150 -0.353324 0.070462 -0.711793 0.691785 -0.151942 -0.217214 -1.220316 0.056328 -0.716153 0.649816 0.243987 -0.528627 -0.400298 0.141715 -0.413565 -0.222391 0.248714 -0.697437 1.143576 0.512585 -0.826917 0.584918 0.066661 -0.272848 0.217760 0.112673 0.514655 -0.028720 0.791876 -0.585102 -0.212782 -0.098523 -0.109192 1.269774 0.256098 1.205517 -0.027403
462 0.577749 -0.312109 1.237191 -0.698948 0.419176 -0.496784 -1.301484 -0.014233 0.239638 -1.122869 -0.244411 0.455007 -0.517308 -0.247131 0.149544 -1.535219 -0.528997 -0.343227 -0.092681 -0.166737 0.074849 -0.176744 -0.665723 0.205816 -0.216171 0.169669 -0.288741 -0.273425 -1.126867 0.242423 0.174985 -1.164941 0.579825 -0.820090 0.273994 1.149780 -1.114489 0.344221 1.410418 0.710465 0.487264 0.115867 0.348021 0.002507 1.565511 0.254647 1.261940 0.711136 -0.767222 1.159436
55 -0.248839 0.240822 2.757233 0.953163 0.630400 -0.907699 0.519813 -0.510389 0.518194 -0.008007 -0.851650 -0.412245 0.095485 -0.366944 0.106577 1.265442 0.137476 -1.025487 1.384631 -0.675244 0.198157 -0.773786 0.495414 0.425157 -0.254141 -0.540437 -0.385421 -0.631497 0.377360 -0.132358 0.862853 0.650537 1.051318 -0.321974 0.394112 -0.443718 -0.736661 0.393878 0.361754 0.029517 -1.369844 0.727921 -0.238984 0.114548 -0.008154 1.015361 0.392207 0.424240 0.646434 0.927227
102 -0.030377 0.583752 0.311963 0.614699 -0.509224 0.139794 -1.364555 -0.015256 -0.523488 0.063013 -1.524705 -1.102271 0.707174 -1.052524 0.398066 1.043344 -0.392548 0.477510 -0.595449 -0.965622 -0.198363 0.206061 0.443197 0.320095 -0.463855 -0.171904 -0.482792 -0.229586 -1.408900 -0.951280 -0.193405 -0.219410 0.042408 0.691940 -0.123864 0.484955 0.308871 0.997418 0.073382 -0.090966 0.776934 -0.491015 0.998482 0.492868 0.674643 0.048167 1.068661 0.450940 0.165233 -0.122667
153 -0.454330 -0.213231 1.617361 0.288040 0.320695 -0.159839 -0.243208 -1.034849 0.353840 0.597608 -0.605040 -0.149434 -0.003176 -0.065190 -0.505232 0.711265 0.503769 -1.714563 0.638172 -0.442693 -1.156848 -0.898382 0.375167 0.828133 1.327377 0.469206 -1.107841 -0.786090 -0.581924 0.242874 0.737949 1.161815 0.648945 0.182667 0.268149 0.349929 -1.201148 -0.015210 1.232550 0.389175 -0.327032 0.752256 -0.698712 -0.025711 0.467741 0.533708 0.069412 1.273276 -0.462823 1.709541
79 -0.419518 0.038276 1.646916 0.520742 -0.390485 1.351793 -1.465121 0.469605 0.173528 -0.172473 0.019527 0.270308 -0.333972 0.183138 0.438379 -0.103865 0.164245 -1.031167 0.073439 -1.550602 -0.097387 -1.477891 0.257701 -0.595600 -0.544623 0.290412 -0.596153 -0.454222 -0.217115 0.258887 -1.312755 -0.618787 0.731406 -0.396229 0.494724 -0.255428 0.180873 0.260822 0.196831 -0.119740 -0.069826 0.234616 0.381824 -0.621369 0.686865 -0.154999 0.485979 0.114885 0.464875 0.114494
421 -0.694198 0.492839 0.077233 1.214208 -0.089290 -0.097984 -1.876612 0.327789 0.224875 0.108637 -0.753097 -0.837867 0.749549 -0.748704 0.080933 0.373645 0.404490 0.234563 -0.370190 -1.586255 0.232655 -0.104492 0.644184 0.280095 -0.869959 -0.386354 -0.399310 0.498139 -1.153096 -0.302587 0.154571 0.090972 -0.086158 -0.597738 -0.001752 0.623588 -0.386287 -0.304423 0.493642 -0.499939 0.518966 -0.024549 0.025978 -0.186936 0.798387 -0.523919 0.582231 0.578426 0.273758 0.709878
173 0.109910 0.387807 0.334287 1.190710 0.257965 0.025249 -1.673805 0.485522 0.006050 -0.839051 -1.019210 -1.083535 0.208250 -0.247202 -0.071344 -0.932405 0.147009 0.222979 0.469323 0.480296 0.292160 0.331735 -0.250054 -0.292710 -0.608380 -0.439933 0.198122 -0.289847 -1.022240 0.006000 0.258862 0.464634 -0.028367 -1.004082 -0.234703 1.075505 -0.650353 0.368674 1.094413 0.205069 -0.486063 0.375864 -0.150657 -0.014434 1.550877 -0.250976 0.434741 -0.449494 0.256790 0.560903
130 0.419430 0.292773 1.398675 -0.498822 -0.560716 -0.479939 -0.722627 -0.165191 -0.549398 -1.308345 -0.912251 0.473963 -0.441471 0.488568 -0.924460 -0.127331 0.169142 0.285781 -0.533011 0.355915 0.337765 -0.197179 -0.023642 0.296119 -1.280924 -1.032530 -0.755184 -1.266156 -0.141059 0.306467 0.078655 0.337771 0.629029 -0.265397 -1.135894 -0.088527 -0.590867 0.426410 1.091538 -0.735871 0.671134 0.058569 0.463222 0.121630 0.024871 -0.808539 0.921384 -0.074383 0.396477 -0.028496
334 -1.170842 -1.099167 1.238490 1.482918 -0.407289 -0.049107 -0.746649 0.056323 0.681298 0.170292 0.128188 -0.430513 -0.383514 -0.116653 -0.260580 -0.399733 -0.236562 -0.245213 -0.704258 -1.579024 -0.191881 -1.340830 -0.837088 -1.012662 -0.186756 -1.046442 0.375112 0.292293 0.250342 -0.287482 -0.070410 1.099205 0.529148 0.383833 0.257998 0.923177 -0.444085 -0.306440 0.787973 0.376299 1.136685 0.254018 0.429106 -0.067195 0.234013 -0.353662 1.566847 -0.504264 2.013738 0.439708
524 -0.571677 0.723994 0.130605 -0.200146 -0.391284 -0.538358 0.056313 0.013768 -0.854159 -0.557391 -1.195897 -1.331069 0.633078 -0.182349 0.197726 0.762021 -0.649820 0.481075 0.498461 -1.288784 0.554389 0.250089 -0.225893 -0.743462 -0.645846 0.422524 -0.037104 1.093648 0.164363 -0.598397 -0.576285 -0.383403 0.195428 0.003164 -0.271887 0.775504 -0.186447 0.760128 0.694045 0.192285 1.854488 -0.393216 1.588315 -0.185341 1.196868 -0.216329 0.977746 0.741391 -1.470524 0.894274
101 -0.400247 0.475693 0.316895 0.402761 -0.687555 0.035948 -1.273439 0.228844 -0.761532 0.075577 -1.750018 -1.145977 0.546232 -1.336702 0.717586 0.900763 -0.424205 0.232194 -0.961593 -0.914554 -0.433775 0.032173 0.639347 0.354966 -0.496660 -0.191717 -0.541043 -0.196158 -1.404657 -1.171523 -0.414876 -0.465451 -0.062697 0.548940 -0.413006 0.544345 0.027323 0.807880 0.142260 0.210158 1.000971 -0.784166 0.943425 0.324490 0.810196 -0.164127 1.141671 0.498394 0.212998 0.086166
347 -0.172537 0.227887 1.278848 1.106084 -0.385657 0.775390 -1.545131 -0.805879 0.006978 -0.462407 -0.044811 -0.396576 0.603231 0.378753 -0.343733 -0.204710 0.054855 0.260052 -0.385785 -0.282553 -0.181956 -1.057615 0.077075 0.176783 -0.484065 -0.854541 0.121550 -0.686883 -0.003791 -0.115969 0.194834 -0.222859 -0.013663 -0.693509 -0.804825 0.204221 0.474728 -0.682070 0.454827 -0.277856 0.219671 0.361267 0.519252 -0.357101 0.544260 0.255456 0.778153 0.525732 -0.021656 -0.380504
335 -0.044452 0.725617 1.523338 1.173794 0.863166 -0.661163 -0.467932 -0.930407 0.386538 0.800809 -0.912371 -0.286685 -0.543970 -0.322320 0.321625 1.188093 0.534398 -1.112122 0.446912 -1.045472 -0.313450 -1.307469 0.741483 1.261659 0.353498 -0.494046 -0.364567 -0.824607 -0.865011 0.147317 0.241781 0.394039 1.500667 -0.034000 0.340141 -1.198983 -0.968180 -0.754149 1.781542 0.723553 0.194360 0.220227 0.023006 0.450183 -0.006399 -0.280919 -0.399031 0.756830 0.306716 0.827373
525 -0.542016 0.603544 0.399071 -0.379982 -0.369940 -0.368627 0.136310 0.032300 -0.635684 -0.374302 -1.079786 -1.440600 0.587496 -0.078673 0.218751 0.622136 -0.580305 0.508404 0.703198 -1.075771 0.581584 0.492446 -0.470158 -0.651738 -0.367299 0.638762 0.005257 1.021227 0.003072 -0.298525 -0.519736 -0.198226 0.443441 0.023151 -0.075849 0.582248 0.040178 0.872129 0.805679 0.244957 1.995786 -0.246804 1.663968 -0.073096 0.875830 -0.219668 0.821709 0.883547 -1.219525 0.489841
44 -0.087336 -0.188557 0.292082 0.004551 -0.123597 0.323082 -1.387768 -0.224544 -0.374412 -0.354380 -1.287034 -0.223513 1.396358 -1.285354 0.382017 0.761990 1.020333 -0.321149 0.040229 -1.164795 0.057024 0.431154 0.715810 0.326479 -1.155557 -0.550037 -0.094893 0.451239 0.015487 -0.327427 -0.201461 -1.031821 0.230014 -0.831891 0.385688 0.272886 0.484681 0.629758 0.069815 -0.588464 -0.012282 0.375872 1.427849 0.191412 1.825750 -0.571843 0.647747 1.007813 0.183287 -0.341770
360 -0.553842 0.716028 0.832941 0.585454 -0.435252 0.268176 -0.977704 0.084649 -0.679633 -0.094157 -0.427421 -1.099236 0.353661 -0.436577 -0.210455 -0.034436 -1.601925 -0.343674 0.448600 -0.472092 -0.172862 -0.510310 -0.085300 -0.670931 -0.681538 -0.011912 -0.353976 -0.205725 0.219484 -0.573921 1.038029 -1.438262 -0.363321 -0.138811 -0.423863 0.375088 0.913847 -0.023297 -0.140576 -0.283163 0.008358 0.224722 1.276366 -0.762693 0.872334 -0.310665 0.119749 0.979617 0.073270 -0.507168
200 0.777961 0.997929 1.466173 0.214013 0.121281 0.562137 -1.234207 -0.544344 -0.131223 -1.013315 -1.464250 -0.500238 -0.255462 0.363047 -0.111999 -1.455062 0.305952 0.659396 -0.723340 0.347918 -0.106286 0.605578 -1.081431 0.129806 -1.010117 -0.152048 -0.255636 0.216427 -0.598184 0.873878 -0.239993 -1.285171 0.255174 -0.057018 -0.213616 0.567142 -0.091850 0.385289 1.294077 -0.339977 -0.827475 1.176496 0.418694 0.312220 0.631569 -0.017727 0.205668 0.042541 -0.300609 -1.260550
107 -0.405881 1.471705 0.796719 0.624193 -0.104496 0.067228 -0.434612 0.230937 0.055556 -0.492118 -1.007912 -0.971037 0.500536 -0.009577 -0.158186 0.216480 -0.481596 0.788216 -0.223359 -0.825693 -0.577170 -0.288551 -0.051087 -0.072080 -1.633688 -0.321497 -0.077706 -0.341308 -0.214512 -0.667787 0.089946 -1.400157 -0.037034 -0.501831 -0.642835 0.159774 -0.198867 -0.402993 -0.409665 -1.089647 0.304934 -0.311677 0.801025 -0.372175 1.377152 0.055670 0.902810 0.569830 -0.431674 0.447922
53 -0.206655 0.925098 1.048425 0.284480 -0.336477 -0.920334 -0.832316 -1.295020 -1.102948 -0.292333 -0.601284 0.116195 0.451232 0.389554 -1.203725 0.169732 0.026774 0.447760 1.304334 -0.953870 -1.398438 -0.226071 1.221548 -0.559825 0.138748 0.990283 -0.724969 -1.101197 -1.289198 0.070859 -0.609816 1.027832 -0.444072 -0.807021 0.588420 -0.514366 -1.607393 0.543882 0.057662 0.363158 -0.348548 -0.052539 -0.699305 -0.113809 -0.253831 1.448174 0.194429 -0.520606 0.342501 0.787568
592 -0.558730 0.440436 0.061040 0.307202 0.006409 -0.125049 0.000748 0.362595 -0.159186 0.404354 -0.626479 -0.008686 1.291934 0.042120 0.727223 -0.230375 -0.320088 0.973255 0.603161 -0.499461 -0.446099 -1.438069 -0.196122 -0.866028 -1.899094 -0.486435 -0.369587 -0.222070 0.268876 -0.932996 0.962982 -0.371221 0.128636 -1.160666 -0.298184 -0.638608 0.316905 0.963618 -0.283099 -0.145605 0.308180 -0.732872 0.705225 0.103061 0.655643 0.196234 0.877869 0.131288 0.419309 0.041610
163 -0.657586 0.681903 0.927326 0.442957 0.490280 0.647227 -1.258791 -0.048178 -0.208335 0.142071 -0.776840 0.371319 0.870562 0.004065 1.737715 -0.554064 -0.755538 1.122678 1.415350 -0.626924 0.284748 -0.296012 -0.217215 -0.210788 -1.089122 -0.274203 -0.502008 0.298885 -0.042860 -0.259725 0.571303 -0.364496 -0.590686 -0.399253 0.162847 0.520565 -0.033176 0.501692 0.850487 0.319391 -0.499753 -0.617102 0.235344 0.802767 0.742175 0.425323 0.845357 -0.289883 -0.619641 -0.296713
647 -0.182054 0.890637 0.510222 -0.188033 -0.248187 -0.255769 -2.092321 -0.097170 -0.094787 -1.356933 -0.606358 0.287672 0.452590 -0.953685 -0.573475 0.979950 0.652435 0.670717 -0.390410 0.048834 -0.784267 -0.082374 0.315548 0.093612 0.005161 -0.829345 -0.068356 -0.531667 -0.595159 -0.375483 -0.028819 -0.523691 0.350105 -0.763837 -0.558528 -0.099984 0.525158 0.466982 0.106614 -1.224247 0.199932 0.548980 0.953795 0.308325 0.711506 -0.076203 1.650175 -0.337387 -0.161740 -0.341315
485 -0.868237 0.639326 0.376544 -0.093726 -0.287295 -0.331048 -0.321818 0.029667 -0.289916 -0.316185 -0.919092 -1.094777 0.768399 -0.014461 0.328339 0.760592 -0.611748 0.712788 0.601502 -0.821277 0.426424 0.133295 -0.492535 -0.549260 -0.436941 0.377417 -0.436806 1.115142 -0.085499 -0.243600 -0.649385 -0.323620 0.182628 0.000717 -0.425180 0.615746 -0.015118 0.744834 0.717734 0.015839 1.483995 -0.395185 1.532995 -0.054231 0.979327 -0.019181 0.912147 0.721097 -1.209416 0.426006
246 0.112495 0.070773 0.535374 -0.109287 0.486646 0.033169 0.219109 -1.198553 -0.941414 -0.487758 -1.128263 1.140256 0.153081 0.215274 -0.352212 -0.282265 0.032700 -0.148551 0.355647 0.635848 -0.773789 0.127204 0.359591 -0.787325 -2.355241 0.133174 -0.530733 -0.569279 -0.677229 -0.905967 -0.036126 -0.047508 -0.384469 0.698016 -0.665811 -0.159587 -0.137016 1.741243 1.076725 0.408454 -0.046395 -0.328047 0.306566 0.956120 1.054246 -0.560157 0.947122 0.458052 0.074440 0.403551
254 -0.280706 0.853545 0.209549 0.613433 -0.230442 0.036857 -1.085658 0.076013 -0.465344 -0.287731 -1.398377 -0.852249 1.112109 -1.008613 0.469088 0.638392 -0.203230 0.367642 -0.354548 -0.879131 -0.061464 0.090528 0.079492 0.195041 -0.865516 -0.127464 -0.561412 0.081279 -1.219503 -0.476207 -0.731442 -0.443254 0.028729 0.370111 -0.409904 0.391944 0.077479 0.803290 -0.015186 0.121050 0.519548 -0.306209 0.722523 0.439858 0.915027 0.074001 0.781259 0.702801 -0.075875 -0.096428
433 -0.034682 -0.527106 1.826276 -0.055740 -0.038210 0.598590 -1.395670 -0.768024 -0.410119 0.091016 -0.314448 1.016207 -0.037528 0.183063 -0.315086 0.069542 0.263458 -0.543179 -0.273364 -1.656616 -0.729393 1.233211 1.459025 0.314787 -0.142350 -1.179420 0.040094 0.232885 -0.449251 -0.601140 0.077332 -0.318814 0.031038 -1.050443 0.010396 0.869901 -0.866199 -0.169494 0.182241 0.390689 -0.225471 0.294359 -0.555117 -0.660581 0.768328 -0.108905 -0.129141 0.418034 0.299932 1.226618
574 -0.369109 -0.410068 0.532676 0.690474 -0.470355 0.040238 -0.678711 0.830643 -0.470538 -1.055494 -1.463299 -0.749648 -0.355821 -0.212743 -0.639255 -1.176213 0.105117 0.772270 -0.060957 -0.427049 0.077258 0.058602 0.259962 0.148288 -1.021289 -0.102092 0.281093 -0.259306 -0.821350 0.608096 -1.371470 -0.133885 0.352188 -0.908099 -0.285260 -0.055503 -1.025465 0.392084 0.717016 0.219705 -1.334531 0.858383 0.846825 -0.439313 -0.324517 0.345093 1.251083 -0.116694 -0.158201 -0.239492
146 -0.464114 -0.811477 1.219206 0.814081 0.473479 0.673542 0.179096 1.009746 -1.106813 0.274712 -0.112886 0.181524 -1.211918 -0.963383 -0.703115 -0.312678 -1.225461 -0.227755 -0.078060 0.754277 0.439055 0.471843 0.409698 -0.046363 -0.689816 -0.396901 -0.074766 -0.611791 0.048926 0.692945 -0.503824 0.332504 0.085893 1.172545 -0.044330 0.066957 0.228320 -0.792705 0.943493 -0.256049 -0.622560 0.207648 -1.389065 -1.212156 1.542136 0.638706 0.965153 -1.137164 1.400760 -0.609404
142 -0.687054 -0.770334 0.824097 0.259338 0.616029 -1.295794 -0.454214 0.743590 -0.325766 -1.200863 -0.812904 0.453589 0.052873 0.221408 0.128190 -0.607606 -0.481977 1.038806 1.890376 -0.907592 0.497527 0.038713 -0.693345 -0.286965 -0.311708 0.249967 -0.147470 1.366301 -0.830034 0.256448 -1.184145 -1.107410 0.403085 -0.351193 0.492930 -0.376189 -0.433322 0.590117 0.662596 0.157172 0.012022 0.200766 0.227661 -0.004742 0.555288 0.629380 1.593390 0.335039 -0.618769 0.244742
304 -0.265520 -0.055423 0.632415 1.034995 0.035558 -0.328886 -1.102403 0.581707 0.052321 -0.188221 0.068808 -0.070672 1.015719 -0.178498 -0.273072 -1.039229 -0.126371 0.128946 -0.856584 0.237000 0.190671 -0.762895 0.065879 0.726071 -1.892300 -0.517495 -0.547131 0.189609 0.583203 -0.240102 -0.187606 -0.236773 -0.025996 -0.101641 -0.779384 0.807845 -0.480139 -0.721208 0.988470 0.129396 0.724647 0.836528 -0.824720 -0.177447 0.419216 0.195834 1.576354 -0.186077 0.495042 -0.420847
478 -0.104312 0.920395 1.778123 0.911357 0.152370 -0.554869 -0.170603 -0.639653 0.017048 0.475797 0.557125 -0.574179 0.230081 0.115722 -0.666732 0.626257 -0.106217 -1.751737 0.270182 -0.960750 -0.477593 -1.008542 0.206499 0.768644 1.051301 -0.530932 -0.436380 -0.831017 -0.854892 -0.091005 -0.187069 0.692112 1.318705 -0.509812 0.172790 0.257647 -0.579994 -0.772472 0.808934 1.044032 0.304523 0.222609 -0.904987 0.062576 0.483510 0.453543 0.072070 0.897881 -0.180909 1.510667
128 -0.509917 0.684620 0.118267 -0.180153 -0.542890 0.263894 -1.026707 0.059916 -0.401507 -0.093599 -0.696953 -0.372509 0.322037 -0.376393 -0.030738 -0.042391 -0.510126 0.618548 -0.392829 -1.172306 -0.357415 -0.585311 -0.192021 -0.943097 -1.426996 -0.143161 -0.203145 -0.239596 0.097355 -0.751902 0.084104 -0.913892 0.172557 -0.835747 0.221441 0.292146 0.362546 0.032497 0.001810 -0.447672 0.156697 -0.538400 0.704263 0.274432 1.245874 -0.000116 0.658689 -0.248445 -0.892447 -0.044332
344 -0.531469 0.414661 0.549238 0.455445 0.344748 0.724128 -1.568114 -0.595602 0.485541 -0.687307 -0.273711 0.612851 -0.268887 -0.297543 0.612926 -0.368160 -0.103343 -0.087324 0.753562 -1.001268 0.288965 -0.494703 1.404153 0.574377 -1.567825 -0.345670 -0.065070 -0.285762 -0.080427 -0.358893 0.019794 0.088106 -0.015385 -0.648024 0.070087 0.246671 0.242613 -0.033131 0.194547 0.171785 0.299792 0.419739 0.331404 0.371017 -0.028773 -0.770020 1.857909 0.948640 0.880586 -0.372303
70 0.635420 -0.793914 0.865967 0.915337 -0.609789 -0.434106 -0.587201 0.885248 -0.760451 0.693188 -1.034022 0.269446 1.736645 0.743410 -0.385848 0.212940 0.459598 0.583856 1.074588 -1.073350 0.933363 0.767512 -0.691213 0.734782 -0.941576 -1.486406 0.384313 0.998220 0.357452 0.486419 0.549208 0.226130 0.952891 0.772817 -0.633082 -0.078049 -0.870617 0.253015 1.026712 -0.887603 1.247419 -0.051665 0.774391 0.247831 0.318361 0.568958 0.416323 0.359027 0.209113 -0.542357
58 0.048804 0.809859 1.077897 -0.015362 -0.298839 -0.965942 -0.523069 -1.300607 -1.032117 -0.278164 -0.485119 -0.203725 0.392199 0.097048 -1.019860 0.394510 0.263475 0.350182 0.884615 -0.406773 -1.126752 -0.343204 0.965992 0.118727 0.455002 1.215588 -0.865134 -1.113045 -0.968435 0.173132 -0.229441 0.739480 -0.248525 -1.079984 0.374616 -0.468760 -1.806475 0.207692 -0.064779 0.558914 -0.498025 -0.183761 -1.234501 -0.020316 -0.473450 1.372617 0.008975 -0.536896 0.362615 0.583684
518 -0.202198 1.293640 0.977715 0.310329 0.213706 0.455307 -0.848873 -0.964582 -0.869195 0.291160 -1.171943 0.423287 0.572760 -0.119555 1.501113 -0.847062 -1.046365 0.686992 0.708346 -0.559441 0.204840 -0.393942 -0.449725 -0.279757 -1.114329 -0.691279 0.259245 0.350790 -0.540926 0.741932 0.332133 -0.670980 -0.238010 -0.142964 0.060598 0.962573 0.322360 0.419610 0.760175 0.208523 -0.560101 -0.981742 0.307286 0.273515 1.534785 0.500328 0.032592 -0.123716 -0.640185 -0.266241
275 -0.275790 0.031600 2.258368 0.337068 -0.705106 0.724005 -0.693304 -0.142759 -0.579734 0.026986 -0.701999 -1.283570 -0.480722 -0.370641 -0.864262 -0.857537 0.050945 0.206695 -0.174724 -1.226397 0.322620 0.385025 -0.772814 0.187815 -1.407595 -0.281287 -0.037753 1.251434 0.493656 1.341784 -0.066271 -0.961669 0.158880 -1.251951 0.172572 -0.434700 0.532652 0.126856 0.184801 -0.114522 0.394734 0.507873 1.125944 -0.405175 0.014350 -1.216843 -0.505248 0.825248 -0.485234 -0.718713
180 0.169171 1.021656 1.295112 0.529968 -0.004601 -1.040626 -0.609759 -1.452277 -0.556256 -0.781251 -0.731471 -0.558587 1.263483 0.375272 -0.533924 -0.161792 0.821140 0.184233 0.511877 -0.727380 -0.387244 -1.153152 0.756456 0.199822 -0.236195 0.374201 -0.251965 -0.878147 0.152049 0.880523 -0.257984 1.078782 0.043923 -1.005129 0.775392 0.098462 -0.901174 -0.023591 0.376136 -0.028838 -0.468578 1.324337 -0.524566 0.189264 1.296230 1.238599 0.007671 -1.592785 -0.727379 0.106876
725 -0.098214 1.357609 0.569428 1.427476 -0.030800 -0.098511 -1.418083 0.533726 -0.228417 -0.695345 -0.947089 -0.930027 -0.381752 -0.165296 -0.968609 -0.705197 -0.227580 0.736303 0.501878 1.101545 0.644091 -0.151936 0.631059 -0.103388 -0.977206 -0.744888 0.542892 -0.498227 0.081730 0.626744 0.215545 -0.046523 0.466941 -1.083273 -0.179601 0.495089 0.023328 -0.466136 -0.344275 -0.313143 -0.513961 0.683455 0.219330 0.063431 0.951654 -0.799660 1.025951 -0.220034 0.713689 -0.612974
177 -1.223489 -0.720320 1.594117 1.309191 -0.021574 -0.290720 0.160381 0.827465 -0.320218 0.827659 0.171020 0.409078 -0.945340 -0.379201 -0.955876 -0.576180 -0.565802 -0.304799 -0.329736 -0.254767 0.478665 0.266852 0.809178 0.160845 -0.997115 -0.533453 -0.133489 -0.289791 -0.257685 0.056645 -0.042218 0.932698 0.583940 0.490931 -0.309510 0.087521 0.093751 -0.743896 1.389555 -0.085726 0.134526 0.108538 -0.202328 -0.315599 0.664613 -0.260861 1.090197 -0.643679 0.080868 0.300020
229 -0.300005 0.948867 1.847606 0.614295 0.923595 -1.355865 -0.472433 -0.248357 0.110537 -0.030519 -0.851904 -0.827773 -0.145804 -0.582623 1.684986 0.791521 -0.315120 -0.701664 0.119905 -0.476269 -0.098065 -1.494291 -0.326583 1.020174 0.826348 -0.458902 -0.658414 -0.328956 -0.413936 0.771370 0.696469 -0.090322 1.279785 -0.212572 -0.347869 -0.405408 -0.606695 -0.206791 0.920660 0.657285 0.415461 0.374072 0.411294 -0.658315 0.628935 0.221222 -0.635478 0.261383 0.485015 0.875197
248 1.012693 0.787711 0.019247 0.110220 0.593027 0.359031 0.572468 -1.211279 -0.616981 -0.507656 -0.507387 0.256096 -0.634820 0.115690 0.213014 0.026358 -0.252073 -0.490096 0.723060 -0.046395 -0.044959 -0.929420 0.809366 -0.871619 -2.602316 -0.012464 -0.623497 0.632827 -0.240349 -1.087927 1.371105 0.423554 -0.824349 -0.540188 -0.338828 0.781383 0.102955 1.681634 0.360501 0.296143 -0.014872 -0.057811 0.275757 0.427846 -0.150125 -0.762400 1.296691 0.479241 1.390457 0.099015
122 -0.154883 -0.530699 0.374036 -0.268180 0.338388 -0.471793 -0.657785 -0.218932 -0.263842 0.269783 0.147670 0.218170 0.508709 0.207126 -0.636152 -0.377389 0.097595 1.026138 0.753122 -1.575359 -1.211435 0.321310 -0.276456 0.493362 -1.489225 0.620269 -0.313082 -0.435963 -0.670270 -0.545548 -0.033664 -0.231131 -0.538791 -0.049969 0.120591 -0.589405 -0.694396 0.038105 1.164103 0.067471 0.483593 0.823311 0.837924 0.596703 0.397978 0.795803 0.811701 -0.313738 1.359495 0.403165
232 -1.055682 0.502324 1.308170 0.524041 0.303393 1.042182 -0.948371 -1.718750 1.270408 -0.276089 -0.350407 0.253257 -0.512783 -0.352964 0.154192 -0.028174 0.490019 -0.299197 -0.536836 -0.704160 -0.557479 -1.284262 -0.660084 -0.037586 0.343961 -0.061895 0.255509 0.338996 -0.161249 0.595728 0.563829 0.587208 0.835657 -1.653042 0.288305 0.143760 -1.250849 -0.439285 1.167778 -0.570773 -0.102377 -0.367170 -1.106935 -0.667513 -0.067283 0.340648 0.674426 -0.570908 -0.454645 0.701644
451 0.100082 -0.859992 -0.344458 0.367569 -0.798004 -0.111970 0.055638 1.004942 -1.718803 -0.112952 -0.835383 0.134363 0.292415 -0.205935 -0.081017 -1.675237 -0.627302 0.080149 0.041488 -0.629105 0.081637 -0.697956 0.111816 -0.696848 -2.425923 -0.531427 0.229328 0.065309 -0.594021 -0.185007 0.421376 -0.443735 -0.320523 -1.331068 -0.547054 -0.373440 0.174139 0.613835 0.798967 0.383174 -0.041567 -0.048810 -0.845009 -0.976930 0.449061 -0.213690 1.067484 0.041930 -0.175573 0.253613
56 1.162054 0.011535 1.543192 0.497020 -0.173571 -0.897173 -0.680257 -0.606151 0.087482 -0.160652 -0.434974 -0.261481 -0.789730 0.328938 0.339849 -0.065375 0.240784 0.500057 -0.695431 -1.500735 0.367766 -0.736439 1.496292 1.237620 -0.132744 -0.886507 -0.866310 -0.957857 -0.852242 -0.158264 0.120847 0.999487 0.084831 -0.166792 0.777019 0.520990 -0.698819 -0.332956 0.019380 0.671885 0.079248 0.760464 -0.938885 0.689379 -0.135678 0.992856 0.765552 -0.862059 0.000412 1.149441
882 0.537873 0.106436 0.430086 0.211651 0.081504 0.405267 -0.222275 -1.125792 -0.702791 0.278510 -0.639869 -0.810155 0.346500 0.460442 -0.988267 0.623599 -0.095507 0.692045 0.688440 -0.435846 -0.146870 -0.249606 -0.251467 -0.576571 -0.989370 -0.103923 -1.502800 1.075401 0.268225 -0.485806 0.261099 0.033879 -1.130405 -0.472986 -1.020012 1.556551 -0.620257 0.971695 0.034569 0.444745 -0.317314 0.522509 0.822832 0.427156 0.720508 -0.153098 0.709291 0.249495 1.182335 0.723886
114 0.241871 0.080873 0.784106 -0.857376 -0.002268 0.860163 0.014190 -0.203764 0.852279 0.180321 -0.261254 0.192950 0.202683 -0.107468 -0.490522 -0.348321 0.293061 0.345972 0.519230 -0.191449 -0.696009 0.214494 0.772075 0.472928 -0.968769 0.726071 0.015529 -0.155917 0.466894 0.632037 -0.388357 -0.146814 -0.355174 -1.093380 -0.200671 0.198170 0.571500 0.592444 0.022031 -0.315179 0.340376 0.770903 2.029925 0.000569 0.845232 0.749696 2.211147 0.514933 0.328117 0.446010
312 0.332350 1.073258 0.407384 0.322808 -0.851455 1.209701 -0.022876 -1.411672 -1.507293 -0.549905 -1.301021 -0.803669 0.234778 0.104429 -0.615390 -0.260184 -0.859655 0.407566 -0.561254 -0.154826 0.805158 -0.319565 1.067794 -1.337962 -0.979653 0.239542 -0.304972 -1.266869 -0.010253 -0.300150 0.771213 -0.554131 0.138330 -0.625398 0.115215 -0.332147 1.124724 0.331318 -0.578510 0.299059 1.253954 -0.407147 0.577617 -0.635425 0.618318 -1.165389 0.377704 1.648502 0.243021 -1.445777
263 -0.434137 0.941635 0.114555 0.527352 -0.499223 0.634889 -0.671574 0.704572 -0.305363 0.126794 -1.147006 0.239757 0.456856 -0.583871 -0.019953 0.166766 -0.960163 0.129916 0.436626 -0.546465 -0.531117 -0.861374 -0.624970 -0.597403 -0.070367 0.038372 0.357074 -0.384211 -0.538892 0.679142 1.156683 -0.605076 0.040637 0.084820 -0.224875 0.439985 0.289012 0.685234 -0.689359 -0.342468 0.937685 0.319616 0.211349 -0.776930 0.968792 0.208904 1.305066 -0.124562 0.367419 -0.182117
212 0.450776 -1.059781 0.703430 0.432971 -0.626744 -0.313861 -1.219129 1.510083 -0.921423 0.017982 0.187861 0.066541 1.958464 -0.554478 0.400006 0.446903 1.400997 0.342628 0.178583 0.037304 -0.914979 -0.064505 0.503239 1.946615 0.010794 0.140728 -0.794114 0.190563 -0.656136 -0.317151 -0.507482 -0.535460 0.213396 0.406707 -0.625260 -0.531126 0.070114 0.550820 -0.636128 -0.543541 1.474435 -0.104847 -0.154180 -0.584938 0.808063 0.631013 1.356461 0.329681 1.739863 0.074778
444 -0.300397 0.537343 0.093189 0.532151 0.185202 -0.419073 -1.599051 0.141766 0.562797 -0.211282 -0.142923 -0.753539 -0.282890 -0.595177 0.099306 -0.068223 -0.059093 -0.317011 -0.703570 -1.541095 0.366575 -0.177708 0.688720 -0.060116 -1.085850 -0.260040 -0.339167 0.284912 -0.225771 -0.067151 -0.098923 0.244140 0.010986 -0.824661 -0.237470 0.835105 -0.157471 -0.467789 0.139510 -0.728359 0.576617 0.405607 0.272899 -0.665204 0.955939 -0.244125 0.186285 -0.145998 0.089997 1.076364
68 0.571803 0.422327 1.098930 1.006950 -0.490844 -0.549043 -0.296379 -0.018253 -1.141098 0.766156 -0.817486 0.199362 1.155374 0.703429 -0.081851 1.000228 0.308036 0.982198 1.000923 -0.808361 0.439791 0.631962 -0.055589 0.187348 -0.867940 -0.886649 0.177414 0.990926 0.426178 0.471842 1.654237 0.236008 0.330236 0.569203 -1.084996 -0.575101 -0.753437 -0.001082 1.207736 -1.439231 1.404544 -0.267310 1.377731 -0.138456 -0.369883 0.350594 -0.217157 0.514136 -0.161905 -0.591556
1006 -0.169071 0.139714 1.388012 0.764569 -0.460206 -0.018044 -1.040364 0.418704 -0.637700 -0.916924 -0.461695 0.423296 0.320542 -0.754408 -0.522913 0.263619 0.363249 -0.193357 -1.101508 0.268885 -0.393700 -0.148579 -0.091772 -1.043305 -0.885081 -0.511202 -0.477304 -0.490196 0.414766 -0.492945 0.689652 -0.113566 -0.169935 0.663712 -0.963235 -0.120120 0.248603 -0.181964 0.276312 -1.100459 0.620846 0.777967 0.211558 -0.063068 0.748162 0.347562 1.664996 -0.567067 -0.431734 -0.687265
118 -1.028990 -0.079275 0.636455 0.782991 -0.319093 0.141060 -0.057665 0.865713 -0.106804 0.845337 -0.717589 -0.304173 -0.468176 0.090318 -0.406462 -0.408079 -0.096942 0.284797 -1.256547 0.984155 -0.133497 -1.121138 1.144087 -0.068603 -0.577688 0.390604 -0.046637 -0.856686 0.350408 -0.151474 -0.975729 -0.206074 0.111023 -0.697632 -0.307296 -0.002879 -0.833916 -0.945604 0.900078 0.025929 0.383931 -0.206481 -0.564405 -0.967346 1.367572 -1.171742 1.248600 -0.512538 0.948844 1.005805
481 0.379218 0.273902 1.463003 1.010839 0.365184 -0.371769 0.159344 -0.511982 0.760313 0.828433 0.271197 -0.160132 -0.212989 0.777203 -1.192137 0.819871 0.489631 -2.023692 1.155332 -0.739106 -0.664387 -1.014683 0.476625 0.502015 -0.052968 -0.185852 -0.768573 -1.121608 -0.733468 -0.972327 0.738086 1.107103 1.147494 -0.464492 0.317055 -0.151519 -0.695803 -0.115422 0.801234 0.227096 -0.303854 0.399435 -0.721751 0.418292 -0.249035 0.142642 0.155036 1.087684 0.504776 1.454721
470 -0.288561 0.282036 0.184209 0.786379 -0.037301 -0.629887 -0.094197 -0.018204 -0.314185 0.164264 0.146464 -0.706821 0.033220 -0.496416 -0.877975 -0.806750 -0.741672 1.770546 1.138096 0.107094 0.088921 -0.455224 0.733010 0.125168 -0.080049 0.287061 -0.582243 0.793072 -0.517380 0.741854 0.397652 -0.454134 -0.764072 -0.208350 0.268399 1.486764 -0.030528 0.257522 -1.467920 0.065572 -0.017429 0.344537 1.532492 0.397248 1.134225 0.348935 2.248389 0.576806 0.199192 0.900571
782 0.141710 0.563691 2.025366 0.916839 0.251891 -0.264833 0.205369 -0.981239 0.978437 0.331632 -0.804241 -0.806467 0.029900 0.900329 -0.577587 0.764202 0.347304 -0.708667 0.512989 -0.722825 -0.216030 -0.990490 -0.050036 0.745645 1.071189 -0.025878 -0.498642 -0.772977 -0.975302 -0.202100 0.155843 0.443373 1.252593 -0.059186 0.683721 -0.165729 -0.905366 0.099240 0.889042 0.426121 -0.566721 0.694705 -0.620108 0.508715 -0.092311 0.436109 -0.167047 0.594961 -0.108134 1.153268
249 -0.074622 0.082217 0.422699 -0.538595 0.424857 -0.179537 0.380507 -1.071894 -0.473890 -0.359214 -0.751819 0.757154 0.159540 -0.014280 -0.305876 -0.304084 -0.079335 -0.019836 0.636434 0.380091 -0.391474 0.040963 0.263431 -0.689301 -2.353503 -0.072435 -0.282545 -0.218981 -0.478071 -0.553765 0.214805 -0.021546 -0.830161 0.029828 0.027120 0.061620 0.577381 1.626211 0.789871 0.118453 -0.225762 -0.348922 -0.045272 0.950864 1.204507 -0.438935 0.843232 0.348565 -0.110907 0.469191
457 -0.551856 0.071817 0.242302 0.189309 -0.494869 -0.321787 -0.409404 0.278964 -0.191695 -0.276106 -0.798044 -0.666121 0.357225 -0.398528 -0.174011 -0.517239 0.215441 -0.390785 -0.413551 -1.196469 -0.540857 -1.028264 0.278649 -0.546097 -0.537398 -0.309638 0.501711 -0.289902 -0.076408 -0.042391 0.462103 -0.001004 0.005113 -0.755776 0.581206 1.159133 -0.269396 0.149034 -0.247052 -0.084815 0.019760 0.834606 0.379775 -0.366719 1.460588 -0.724527 0.839493 -0.382101 0.189331 0.861643
213 0.307450 -0.549327 0.715763 0.654864 -0.577144 -0.350491 -1.116109 1.334105 -0.572438 0.126073 0.635377 -0.011375 1.838488 -0.454873 0.593321 0.273797 1.145228 -0.074766 0.012306 -0.006811 -0.481522 -0.297213 -0.061922 1.303655 -0.310946 0.240616 -0.972710 0.094251 -0.350205 -0.572772 -0.593149 -0.228568 0.606821 0.473376 -0.591657 0.058812 0.136292 0.465242 -0.281488 -0.342270 1.318516 -0.361376 0.681435 -0.089614 0.685889 0.492409 1.408272 0.440168 1.841246 -0.259711
115 -0.520116 1.228073 0.536661 1.000474 0.810689 0.626384 0.629009 0.079160 0.147877 0.065483 -0.680010 0.484687 1.879281 -0.381694 0.790460 0.456189 -0.127893 0.730222 -0.808347 -0.199455 -0.890970 0.637159 -0.005945 0.473595 -0.552215 -0.325226 0.254988 -0.265236 -0.710736 -0.685702 0.319827 -1.114002 0.023165 0.670521 -0.537852 0.236851 -0.371732 -0.335067 -0.360411 -0.511640 -0.376419 0.283335 0.735179 -0.289665 1.292120 1.048787 1.355705 0.206844 0.852594 -0.172697
1017 -0.206004 -0.291391 0.649228 0.472916 -0.364688 0.706089 -0.748741 0.186198 -0.710906 -0.834003 -1.442726 -0.043505 0.704709 0.801498 -0.548582 -0.367237 0.001131 -0.022883 0.527444 -0.242214 -0.503594 0.010315 -0.552262 -1.173475 -0.324399 -0.072858 0.465360 0.314727 -0.116852 -0.349077 -0.026180 -0.315927 -0.428986 -0.328428 -0.275430 0.972252 -0.981805 0.897285 0.901905 0.104510 0.296330 0.280459 0.566251 0.269219 0.514203 -0.263220 0.878859 0.335683 -0.737258 -0.255435
355 -0.019046 -0.566225 2.162234 1.498092 -1.116442 0.957667 -1.098302 0.448013 0.026212 0.015003 0.394859 -0.396904 -0.843088 0.428623 0.014126 0.214589 -0.464775 -0.974723 0.465119 -1.067700 0.150055 -1.823881 -0.345384 -0.560590 0.274507 -0.136418 -0.258281 0.285627 0.414555 0.381424 -0.714472 -0.437209 0.034728 0.627990 0.485068 0.206363 -0.286326 -0.067577 0.334569 0.067877 0.628798 -0.327794 1.076888 -0.565246 -0.616818 -0.649838 1.015428 0.827925 1.875939 0.155421
837 -0.629448 0.500500 0.398294 -0.548242 -0.031147 -1.788122 -0.162700 -0.688536 -0.761714 -0.706209 -0.296884 0.692222 0.337109 -0.286100 0.577813 -0.902465 -0.708074 -0.111704 0.034605 0.885889 0.172835 -0.223765 0.185093 -0.328943 -0.564332 0.306489 -0.893121 -0.458858 -0.518020 -0.351698 0.152348 -0.367010 -0.283406 0.205214 0.042051 1.375193 -0.479587 0.628551 0.918789 0.426338 0.204253 -0.668803 0.998820 0.704406 0.826151 -0.698488 1.747324 1.420957 0.504987 -0.363206
4 -0.347096 0.187715 1.562313 -0.275462 -1.501994 -0.326587 -1.006240 0.485002 -0.752502 0.755588 -0.334375 -0.150317 0.794435 -0.330238 -0.466046 0.461963 -0.881960 0.518531 1.036125 -0.187855 -0.583482 0.546287 0.186315 -0.407773 -0.622816 -0.524323 0.361501 -0.534580 0.853278 -0.317503 1.358145 -0.739860 -0.832041 -0.708242 0.651143 -0.044948 0.093432 -0.424918 0.629182 -1.290551 0.227286 -1.583100 0.619327 0.222980 0.256077 -0.087263 0.585396 0.236893 0.675852 -0.705765
90 0.355335 -0.369493 0.758061 -0.221528 -0.876075 -0.496771 -0.664771 -1.133750 -0.417922 -0.220478 -1.015311 0.403746 0.615902 -0.248476 -1.517532 -0.033619 0.006441 -0.544091 0.646011 1.162617 -1.478177 0.230250 -0.655101 -0.597686 -0.269529 -0.251189 -0.456985 -1.291192 -0.451220 0.079404 -0.987861 -0.105170 0.357820 -0.855816 -1.068122 0.027447 -0.853617 1.109326 0.065459 0.583220 -0.815927 -1.327757 0.795175 0.796588 0.467359 0.658863 0.074811 1.041090 0.777750 0.663691
35 -0.288984 0.860911 0.551922 0.844620 0.971710 0.719444 0.395906 0.167174 0.264660 -0.099032 -1.380485 0.005951 1.682526 0.011631 0.922120 -0.171098 0.255086 1.138918 -0.662272 0.354802 -0.734027 1.237041 0.707870 0.314276 -0.974105 0.345061 0.640539 -0.312892 -0.243528 -0.957316 -0.079020 -1.269529 -0.056041 0.652374 -0.357510 -0.179305 -0.660843 -0.380322 0.260484 -0.459765 -0.281128 0.305345 0.531858 -0.487616 1.440778 0.784893 1.112859 0.176109 0.417697 0.026441
49 -0.188344 -0.040258 2.028474 0.050490 0.189327 -0.530604 0.388374 -0.057469 0.232916 0.301689 0.604929 -0.149186 0.007114 -0.315707 0.379824 0.295887 0.016769 -2.084677 0.211886 -0.640696 -0.476076 -0.969292 0.186090 0.049209 0.340815 -0.136250 -0.477590 -1.525815 0.002106 0.489086 0.705747 0.990261 0.887196 -0.746496 0.179510 0.319862 -1.061795 -0.092293 0.534889 0.291931 -0.834460 0.628177 -0.225843 -0.683470 0.373658 1.093443 -0.222345 0.994178 0.277134 1.457175
192 0.260879 -0.090380 1.606274 0.115692 -0.045074 0.343974 -1.528964 -0.561090 0.457981 -0.332242 -0.915687 -1.062230 -0.032599 -0.098309 -0.309340 -0.102874 0.416522 0.037155 -0.469697 0.136893 -1.063504 0.183244 -0.063988 0.436535 -0.670821 -0.392988 -0.532968 0.322989 0.494954 -0.475147 -0.183917 -0.396995 -0.420501 -0.532201 -0.255166 0.759998 -0.507037 -0.305387 0.291013 -0.042881 0.020123 0.358229 0.181875 0.514040 0.101106 -0.512690 0.762503 0.767993 1.089305 0.116579
415 0.109562 0.846787 0.474286 0.471678 -0.387284 -0.373008 -1.217608 -0.093612 0.191817 -0.736813 -0.967558 -0.838584 -0.174113 0.205367 -0.183778 -0.666261 0.075750 -0.192825 -0.495791 -0.781178 -0.750198 -0.565835 0.440603 -0.032813 -0.878830 -0.737652 0.479110 -0.631145 0.085194 -0.284762 -0.368175 0.297619 0.897797 -0.586291 -0.313292 0.195248 -0.129062 0.067321 -0.146150 -0.416989 0.411117 0.560932 -0.482537 -0.421637 0.299926 0.004562 0.989611 -0.076374 0.199504 0.467171
379 -0.474046 0.905220 0.656028 0.041367 0.301021 -0.736398 0.007443 -0.267693 -0.473120 -0.796741 -0.146177 0.908154 0.423893 0.866632 -0.278527 -0.095106 -0.061615 -1.100853 -0.867015 -1.211644 -0.787034 -0.264786 0.477097 0.246108 -0.065763 -0.901521 -0.192413 -0.998755 -0.917415 -0.633740 -0.209679 -0.290839 0.555673 -0.490559 -0.588150 0.257551 -0.377954 -0.867935 0.364116 -0.472040 -0.340272 1.211988 -0.633802 -0.901838 0.435639 -0.042985 0.684597 0.906105 0.126529 0.387214
307 0.247990 0.901830 0.643787 0.668990 0.371586 0.664904 0.119250 0.683260 0.294474 0.519548 -0.247706 -1.159676 0.703284 0.030291 -0.686074 0.541435 -0.220646 1.292204 0.061364 -0.430056 -0.451520 0.326878 0.023636 0.618790 -1.373884 0.368293 0.006694 -0.366687 -0.377022 -0.400206 -0.692039 -1.132978 -0.244708 0.090745 -0.535074 -0.108981 0.073700 -0.366827 0.324387 -0.624663 -0.247143 0.482600 0.706479 -0.074961 1.239596 0.925148 1.055016 -0.465334 0.498589 0.700366
33 -0.206171 -0.335789 0.375638 -0.490149 -1.032007 -0.048023 -1.118208 0.221590 -0.599963 -0.162480 -1.013278 -0.169785 1.141665 -0.142892 -0.336293 -0.164593 0.062044 -0.021197 0.834712 -1.056326 -0.580703 0.311015 0.093419 0.424054 -1.213809 -1.066516 1.565788 -0.708516 0.366837 0.164812 -0.290767 -0.521832 -1.082352 -0.364346 0.615994 0.554026 0.525959 0.046734 -0.177072 -0.606403 -0.216529 -0.056052 -0.384428 0.940657 1.055960 -0.364627 0.834722 0.056064 0.501358 -0.475425
108 0.104154 0.959995 1.321800 1.040829 -0.386530 0.108499 0.007445 -0.370569 -0.182541 -0.430292 -0.841705 -0.613787 0.644331 -0.009922 -0.437202 -0.352351 0.247909 1.242145 -0.616073 -0.500893 -0.108404 -0.048520 -0.026930 0.027028 -1.292468 -0.510843 -0.057424 -0.098038 -0.550877 -0.099680 0.537046 -1.738420 -0.142376 -0.241133 -0.132851 -0.209623 0.150426 -0.401382 -1.153846 -1.040513 -0.237012 -0.564894 0.718420 -0.220501 1.024943 -0.146227 0.519734 0.782550 -0.335563 0.229999
162 -0.283614 0.453865 1.282353 -0.191369 -0.886086 -0.962190 -0.794681 0.350978 -0.925614 0.258948 0.407334 -0.066302 0.901835 -0.042684 -0.928013 -0.266177 -0.285152 0.544289 0.397349 0.414245 -0.473827 -0.033439 0.270353 0.341929 0.047334 -0.521669 -0.075060 -0.012373 -0.140758 -0.155726 0.539963 -0.289492 0.390825 -0.906823 0.284791 0.958909 -0.114089 -0.172080 0.107813 -0.391368 0.476475 -0.569585 0.416978 0.391809 0.388628 -0.230406 1.193484 0.052716 0.374902 -0.429817
193 0.092268 0.020065 0.876970 0.320553 -0.437654 -0.293695 -1.191810 -1.061395 -0.214877 -0.093019 -0.905883 -0.544869 -0.123542 -0.878680 -0.386684 0.159830 -0.236206 0.476828 -0.813048 -0.312300 -0.254374 -0.367635 0.297747 -0.100460 -0.791990 -0.680580 -0.003232 -0.007500 -0.760103 -0.349886 -0.183548 -0.769801 -0.017008 -0.710459 -0.387382 0.316200 0.646597 0.582908 0.292731 -0.434998 -1.094896 -0.579903 0.165817 0.359428 0.984016 0.455972 0.388611 -0.226654 0.192443 0.503896
456 0.095266 0.548891 0.091481 1.320169 -0.390248 -0.390902 0.405552 -0.224635 -1.198682 0.682620 0.008526 -1.057156 0.863040 -0.078073 -0.627175 -0.735704 -0.550262 1.544557 0.652089 0.306865 0.165571 -1.416164 1.034787 0.261681 -0.077640 -0.210258 -0.182568 0.610980 -0.199993 0.380078 0.392180 -0.648690 -0.308949 0.304584 0.056911 1.409327 0.578145 -0.343497 -1.015307 0.088084 -0.719698 0.642000 0.966872 0.257214 1.784059 0.020454 1.327283 0.062702 0.270878 0.163313
158 -0.097828 0.304101 2.356916 0.994168 0.245673 0.206181 0.230528 -0.390701 0.975923 0.239031 -0.168482 -0.635395 -0.251948 0.309239 -0.202035 1.429015 0.291323 -1.128388 0.597745 -0.709680 0.279562 -1.024637 0.286541 0.496260 0.675302 -0.157255 -0.665685 -0.667163 0.023217 -0.542642 -0.700934 0.634475 1.309177 0.442779 0.346896 -0.302326 -0.706759 -0.056432 0.941539 0.246033 -1.090495 0.136696 -0.459986 0.644073 -0.002871 0.728041 0.279688 0.667609 -0.358573 1.337098
800 0.026203 0.258890 0.943756 0.804917 0.331184 1.181921 -0.959649 -0.667935 0.256575 -0.123663 -1.104530 -0.022925 0.597592 -0.410049 -0.618890 -0.538720 -0.349529 -0.464526 -0.192622 -0.486565 -0.510852 0.635410 -1.195172 -1.365334 -1.170712 -0.441694 -0.466145 -0.035029 0.707096 0.299387 0.176408 0.510686 0.318675 -0.143299 -0.788014 0.519052 -0.783063 -0.110320 0.452635 0.794827 0.338981 0.138230 -0.171191 0.161365 0.335024 0.670285 0.757792 -0.164089 0.174757 -0.758919
422 -0.999639 -0.924404 0.847644 0.761555 -0.016865 0.242695 -0.024939 0.032691 0.661820 0.537372 0.575109 -0.337740 0.756722 0.344663 0.005953 -0.958731 -0.101552 0.475977 -0.469438 -1.374726 -0.513081 -0.454658 -0.370622 -0.232167 -0.146856 -0.782829 0.590354 -0.260697 0.226092 -0.490996 0.980264 0.546109 0.337814 -0.244215 -0.426089 0.913099 -0.193179 -0.531949 0.087922 0.069043 0.650239 0.419002 0.837963 -0.508703 0.870291 0.010319 0.941791 -0.291682 1.797946 0.713072
342 0.332577 0.331130 1.565947 0.012588 -0.521371 0.014495 -1.293277 -1.447090 -0.928634 0.384263 -0.458929 -0.249894 -0.057175 0.275006 0.522200 -1.415493 -1.323828 -0.284853 0.275807 -0.500104 -0.315740 0.009477 -0.681133 -0.111232 -0.716406 -0.619527 0.179754 0.201846 -0.000107 0.901169 0.486033 -0.967505 -0.716853 0.050880 -0.374798 1.369199 0.918018 -0.218713 1.139128 -0.400836 -0.841515 -0.741506 0.192306 0.222185 1.798546 0.438401 -1.286855 -0.242549 -0.565291 -0.296093
416 0.393815 -1.570275 0.694589 0.238012 -0.381656 -0.996996 -0.480644 -0.062197 -0.291449 0.340977 -0.743952 0.459575 0.113979 0.216463 -1.446774 -0.437199 -0.278476 0.296983 -0.037921 -0.546575 -0.222383 0.406008 -0.447279 -0.041948 -1.132578 -1.244323 -0.048631 0.181498 0.299928 -0.139559 1.249838 0.605379 -0.116463 0.594890 -0.807486 0.599271 -0.722292 -0.102859 1.172295 -0.775202 1.321562 0.355875 -0.045100 0.263212 0.615549 0.305279 0.553480 -0.039292 0.433501 0.540093
159 -0.120070 -0.012431 1.319746 0.981396 1.002860 -0.175678 -0.360514 -0.509941 0.483874 0.420645 -0.945907 -0.099666 -0.761184 -0.871415 0.625250 1.105065 0.245986 -0.910905 0.749287 -0.328326 -0.291110 -1.388353 0.780532 0.958356 0.756335 -0.620648 -0.142151 -0.623352 0.193140 -0.214445 0.752895 0.124248 1.407951 -0.220005 0.189380 -1.979407 -0.417599 -0.380351 1.740222 1.092279 0.120105 0.334521 -0.025728 0.061877 -0.460365 -0.408096 -0.012583 0.548843 -0.686587 0.671058
116 -0.375954 -0.303759 1.314193 0.174611 0.267808 -0.532389 -0.163089 -0.657150 -0.566474 0.521593 -0.516923 -0.430782 -0.113137 0.221806 -0.465276 -0.011992 0.036992 0.794672 -0.228985 1.053676 0.010475 -0.516131 1.223095 0.297684 -0.378655 0.275503 -0.098728 0.323216 1.319782 -0.170340 -0.708498 -0.738231 -0.232568 -0.261334 0.054433 0.911683 -0.899617 -0.895760 1.143337 0.001117 -0.135304 0.264419 -0.040288 -0.359328 1.593740 -0.523496 0.830428 -0.251961 0.960892 0.671002
348 -0.351276 0.578227 0.245933 1.256148 -0.139812 0.899290 -1.308483 -0.038132 -0.459871 -0.114359 -0.799091 -0.414236 0.731332 0.197615 0.285316 -0.022162 -0.762882 0.650511 0.003282 -0.745255 0.414807 -0.167643 0.041252 0.014150 -1.157927 -0.851672 0.062378 0.550352 0.179430 -0.328096 0.838800 -0.160184 -0.821723 -0.121618 -0.985349 0.946449 -0.271478 0.058773 -0.158023 -0.045064 0.682779 -0.013620 -0.482974 0.147279 0.089450 -0.243002 0.690935 0.015873 -0.520975 -0.195447
455 -0.098380 0.649565 0.153635 1.600856 -0.420979 -0.783311 0.462996 -0.201467 -1.126690 0.537828 0.091674 -1.183163 0.839006 -0.049414 -0.851979 -0.665593 -0.352065 1.730873 0.820043 0.446368 0.194158 -1.646521 1.369066 0.182795 -0.023304 -0.237789 -0.252677 0.598644 -0.212135 0.261350 0.465339 -0.702247 -0.397179 0.283484 0.009039 1.228688 0.686798 -0.430307 -1.099885 -0.000131 -0.785690 0.676953 1.228068 0.322112 1.949282 -0.305558 1.397042 0.186464 -0.179548 0.484392
2 -0.454267 -0.162272 0.974104 -0.595328 -1.242856 -0.388535 -0.727874 0.816621 -0.551987 1.195283 -0.473232 -0.489342 0.681978 -0.293084 0.180984 -1.065333 -0.776537 0.921479 0.209802 -0.195365 -0.149024 0.308245 0.256436 -0.957209 -0.984731 0.740822 0.342889 -0.302432 1.181067 -0.573455 1.262939 -1.100204 0.531009 -1.717593 1.172459 -0.705354 -0.024860 -0.995173 1.029774 -0.823410 1.241367 -1.733927 1.335724 -0.497719 0.274482 -0.387385 0.149914 0.113059 0.950528 -1.298776
87 -0.284886 0.131137 1.098446 -0.165948 0.277440 0.169688 0.165812 -0.404257 -1.410784 -0.018848 0.593811 1.889942 0.927302 0.081679 -1.205849 -0.126831 -0.334288 -1.509950 0.965413 0.488717 -0.391867 0.641930 0.704146 -0.057573 0.361231 0.464865 -0.939307 -1.421634 -0.612540 0.628048 -0.156347 0.285302 0.221223 -0.316196 0.128383 1.616946 -1.207138 -0.873622 0.022219 0.638819 -0.739624 -0.487141 -0.215350 -0.426897 1.592711 0.169353 0.046598 0.876274 0.636943 -0.413672
541 0.097640 -0.089308 0.614557 0.089222 0.306797 -0.871269 -0.333989 -0.484996 0.325846 0.057149 -1.777312 -0.205346 -0.250648 -0.825721 0.143231 0.235993 0.378802 -0.950441 0.489545 -0.925313 -0.502432 -0.702982 1.174307 1.189701 0.992157 0.783398 -0.979401 -0.585145 -0.264049 0.527749 1.014971 0.922364 1.169997 0.837949 0.576592 -0.973911 -1.342246 -0.113864 1.114807 0.182659 0.570011 1.384780 -0.476674 -0.342719 0.170053 0.706560 -0.118402 0.649595 -0.857067 0.891665
83 0.213819 0.339936 0.631253 0.784867 -0.544116 -0.056891 -0.961047 -0.867416 -0.583171 0.062996 -1.135543 -0.252557 0.356025 -0.922627 -0.616866 -0.100084 0.000235 0.122618 -0.265370 -0.208358 -0.179985 -0.172841 0.237877 -0.528861 -1.075426 -0.570629 0.047027 0.288818 -0.575486 -0.303152 0.155650 -0.409466 0.226187 -0.469691 -0.357740 0.131870 0.305250 0.802693 0.300525 -0.292340 -1.060478 -0.827774 0.052407 0.423644 1.059130 0.691457 0.026344 -0.139467 -0.690594 0.212022
120 -0.133330 -0.125554 0.742645 0.118397 -0.110275 -0.282351 -0.216473 -0.469700 -0.407392 -0.518887 -1.076778 -1.205662 -0.383940 -0.759771 -1.254097 0.041407 -0.129063 -0.882677 0.735776 1.160708 -0.766667 -0.196901 0.566461 -0.196994 -0.908019 1.283113 -0.639405 -0.806028 0.539999 -0.098551 -0.919979 0.443463 0.767650 -1.155995 0.269645 -0.758260 -0.150832 0.079562 -0.421000 0.557415 0.549883 -0.606695 -1.781601 -0.768803 0.918743 0.235287 1.299888 0.671478 1.807335 0.482359
172 0.097317 0.379837 1.578616 0.973509 -0.676314 -1.494302 -1.877658 -0.506302 0.135400 -0.495770 0.413253 -0.687505 0.822574 0.421530 -0.045449 -0.724120 0.273971 0.493515 0.357214 -0.323262 -0.428717 -0.957185 0.155805 1.126188 0.630243 0.110928 -0.931835 -0.061323 0.041434 -0.182146 0.570048 0.332503 0.910702 -0.804095 0.190920 -0.104180 -0.451675 -0.596844 -0.081744 -0.857541 0.628681 0.291701 -0.324945 -0.183128 -0.611964 1.053256 0.557601 -0.266939 0.792121 -0.793042
74 0.327216 0.253829 0.274071 0.405581 -0.317643 0.068151 -1.562955 -0.769206 -0.278250 -0.666106 -0.930881 -0.013252 0.449724 -0.606387 0.183960 0.422658 1.036659 -0.130503 -0.543122 0.071879 0.382345 0.400793 0.818023 -0.700439 -0.746038 -0.239094 -0.085887 0.548757 -0.854051 0.253897 -0.700206 -0.860013 0.058244 -0.896818 -0.022092 0.024328 1.041709 1.157585 0.188423 -1.298824 -0.774970 0.108367 1.774751 -0.315053 1.167769 -0.325277 -0.737598 0.648247 0.663291 -1.025647
903 -0.169294 1.947014 0.601729 0.024834 -0.348148 0.682984 -0.820749 -0.546663 -1.418525 -0.561948 -0.671778 0.373806 -0.017791 0.428440 -1.453349 0.384289 -0.853958 -0.249578 0.389648 0.168868 -1.264486 1.285161 0.443237 -0.924277 0.414944 -0.083013 -0.577640 -1.399499 -1.185933 0.308604 -0.462512 0.314257 -0.153440 -0.021639 -0.914705 -0.060303 -1.960800 0.183934 -0.281975 -0.101615 -0.721350 -0.096006 -0.357253 -0.690712 -0.591172 0.511616 -0.827475 -0.089114 -0.143927 -0.056810
65 0.007785 -0.128359 0.736218 0.820270 0.092463 -0.669763 -1.133871 0.588096 -0.392299 -0.452398 -0.173497 0.004542 2.353889 -0.261365 0.847091 0.544416 0.985156 0.309541 0.130452 0.257761 0.273270 -0.128623 0.051253 1.177586 0.328404 -0.300366 -0.516800 -0.215115 -0.082103 -0.168675 -0.436246 -0.478118 0.640917 0.366634 -0.646385 0.221137 0.141461 0.076557 -0.552100 -0.337953 0.892451 -0.754747 0.897134 0.179262 1.448401 0.554640 0.743746 0.180158 0.789366 -0.734250
718 -0.978772 -0.225639 2.221366 0.894352 -0.785480 -0.990709 -0.236541 -0.366141 -0.870729 0.256678 0.453307 0.592252 -0.467056 -0.503067 -0.519631 0.019670 -0.160042 -0.403157 -0.252217 -0.094660 -0.652080 1.040272 0.943583 -0.367028 -1.405412 -0.693518 -0.329776 0.710889 0.117408 -0.207413 -0.597684 0.309473 -0.585567 0.555962 -0.241852 0.335537 0.149816 -0.401608 0.898275 -0.320017 -0.013772 -0.268200 0.336309 0.219750 -0.213539 -0.217565 0.915065 0.327835 0.494773 -0.095554
472 -0.895266 -0.381854 0.337986 0.219179 -0.772388 -0.135753 -0.678912 0.484237 -0.519759 -0.159979 -0.448220 0.663060 0.809311 -0.971563 0.179323 -0.487994 -0.531891 -0.502156 -0.911811 -1.429564 -0.303079 -1.112330 0.169034 -0.070280 -0.869980 -1.151900 -0.186782 0.247187 0.467843 -0.052303 -0.062137 -0.639535 0.328815 -0.119789 -0.073073 0.261849 -0.622916 -0.480331 0.683676 0.584570 -0.001265 1.142704 -1.444436 -0.269446 -0.798994 -0.359794 1.580802 0.474286 0.044476 -0.246200
296 -0.215610 0.696208 -0.204644 -0.723720 0.822920 -0.427642 -0.402439 -0.418433 0.149530 -0.057589 -0.349364 -0.204535 0.491815 -0.245494 0.207988 0.148404 -0.698309 0.709614 0.441098 -0.337141 -0.894100 -0.088776 -0.391323 -0.039630 -0.392442 -0.290596 0.361105 0.563466 0.277180 -0.208432 -0.475351 -0.801256 0.151930 -1.110673 -0.458861 0.304967 0.116020 0.549563 0.317704 0.142182 -0.112811 0.168073 0.851878 -0.106635 1.098317 0.836180 0.710262 -0.296134 -0.123041 0.733088
208 0.134676 -0.746163 1.664394 0.323325 -1.265142 0.680447 -0.581374 1.669104 -0.685442 -0.505540 0.181674 -0.102405 -0.248307 0.799407 0.320428 0.351856 0.166630 -0.584900 1.195117 -0.998112 0.230933 -0.634700 -0.041866 -0.313589 0.212099 1.105414 -0.349502 0.134210 -0.236069 0.273019 -1.478513 -1.044335 -0.281125 0.517045 0.984061 -0.227889 -0.605829 0.549387 -0.093172 -0.373084 -0.284929 -0.220040 1.351205 -0.257823 -0.785139 0.005393 0.818525 0.583722 0.986263 -0.251506
252 0.375738 1.189704 -0.146189 -0.269748 -0.142384 0.119316 0.057387 -0.571969 -0.913468 0.535862 -0.439562 0.628179 -0.269721 -0.298123 -0.043486 -0.625824 -0.518247 0.265289 0.570607 -0.266448 -1.025356 -0.289181 0.382842 -0.374620 -1.946038 0.149785 -0.008793 0.036386 -0.194300 -0.683589 0.415518 -0.266333 0.804210 0.253691 -0.260475 -0.066482 0.216146 1.485493 -0.376144 -0.261992 0.585990 -0.313472 0.713290 -0.128307 0.258860 0.133424 0.595218 0.078566 0.217721 -0.488485
454 -0.043043 0.796909 -0.083259 0.698239 -0.329712 -0.479736 -0.102754 -0.401826 -0.147604 0.294409 0.455095 -0.868735 0.522933 -0.255156 -0.600634 -0.093606 -0.429123 1.951930 0.607077 -0.293155 0.349725 -1.251191 0.304606 0.232229 0.454720 -0.226891 -0.654297 1.202822 -0.405004 0.748230 0.488025 -0.672307 -0.696597 -0.364439 0.016316 2.004256 -0.064306 -0.140341 -1.312443 -0.206321 -0.256490 0.062412 1.751041 0.753239 1.264522 -0.104609 1.869463 0.239000 -0.040706 0.892576
223 -0.095461 -0.323770 1.298942 -0.386874 -0.329040 -0.654449 0.524392 -0.626414 -2.153220 0.193839 1.171496 1.555315 1.009045 0.480334 -1.027665 -0.905398 0.011053 -1.187807 -1.172763 -0.383367 -1.143124 0.823010 -0.141051 0.709442 0.342308 -0.987375 -0.987188 -0.737033 -1.255893 -0.063475 0.513048 0.044435 0.257443 -0.169891 -0.079662 2.054789 -0.915554 -1.207413 0.193542 1.445867 -0.601230 0.069161 -1.230775 0.107565 0.896035 0.092174 0.258167 0.675331 0.586131 -0.503523
215 0.307112 0.607572 -0.263379 -0.317666 -0.384138 0.000999 -0.365427 -0.062710 -0.400986 0.739459 -0.916408 -0.652340 0.772405 0.452435 0.827553 -0.558443 -0.882499 0.882101 0.342443 -1.393269 -0.844798 -0.573976 -0.753457 -1.048590 -1.512671 -0.084157 0.126520 -0.632956 -0.443930 -0.816116 0.153005 -0.003866 0.254912 -0.125217 0.004311 -0.375863 -0.193823 1.101184 0.126198 0.540195 0.858102 -0.690397 -0.045374 0.126723 -0.129183 0.885409 -0.429858 0.010257 0.165687 0.229794
941 0.244994 0.868747 0.524036 1.169669 0.629086 -0.335276 -0.716907 -0.848856 -0.865497 0.478539 0.329067 -0.727503 0.932110 0.214506 -0.615808 0.938662 0.246098 -1.507258 1.332992 0.324406 -1.303922 -0.524472 0.621412 0.470666 0.815872 0.361925 0.173708 -1.161294 -0.647513 -0.302723 -0.111401 0.867400 0.261624 -0.056203 -0.292867 0.226228 -1.059301 0.378294 1.017452 1.331534 0.438737 0.624750 -0.823376 -0.312397 0.368839 0.027525 -0.514354 0.630896 0.592750 1.381004
565 0.553701 -0.599960 0.391162 -0.037438 0.455384 0.796702 -0.388713 -0.819384 0.080293 0.152925 -0.920736 0.379259 -0.101562 0.546453 -1.197323 1.029333 -0.410214 -0.659143 1.518827 0.063902 -0.276455 0.186765 -0.711289 -0.457552 0.018487 0.405809 -1.453731 0.141913 -0.259657 -0.167734 -0.638119 0.039321 -0.489516 0.132426 -0.407049 0.764643 -0.831768 1.133991 0.044595 0.731718 0.014374 -0.388090 0.182842 0.471830 0.321462 0.113642 0.955526 1.245384 2.131520 0.335383
698 -0.643244 0.008378 0.163097 0.669648 0.407787 0.969049 -1.976113 -0.612886 -0.002281 -0.069830 -0.140760 -0.001955 0.608616 -0.218810 -0.046857 0.007008 -0.173489 0.044940 0.234422 -0.349922 -0.101687 -0.342314 1.217886 -0.127604 -0.448138 0.032571 -0.223780 0.790828 0.349393 -1.006083 -0.073411 -0.528107 -0.643333 -0.810218 -0.220336 1.534487 0.099970 -0.098931 0.535555 -0.126607 -0.570016 0.237511 0.425230 0.079168 0.719407 -0.559084 0.770812 0.310204 0.143363 0.006240
222 -0.284017 0.044297 0.636789 0.446675 -0.235819 -0.412716 -0.106075 -0.732983 -1.240127 -0.301131 1.139527 1.162132 0.420045 0.472877 -1.206967 -0.440782 -0.291404 -0.822800 0.104574 -0.836512 -1.007160 -0.139829 0.301494 0.505846 0.229305 -0.323739 -1.044266 -1.018819 -1.446736 0.033674 -0.826240 0.139840 0.079289 -0.471731 -0.666468 0.902613 -0.757514 -0.668215 -0.476030 0.441710 -0.911041 0.182520 -0.696619 -0.833202 0.466614 0.953943 0.277771 0.104897 0.392724 0.079483
135 -1.175669 0.912854 1.789045 0.687441 -0.412255 -0.275665 0.405589 0.802606 -0.290739 -0.524325 -0.461387 -0.017987 -0.638009 0.454799 -0.240383 0.982651 -0.079938 1.076643 0.388763 -0.479602 1.318289 0.511562 -0.442262 0.309870 -1.111085 1.225160 -0.927928 0.942061 -0.680418 0.651732 -1.694535 -0.980065 -0.294953 -0.051235 -0.061421 -0.358557 -0.820498 -0.388888 0.820298 -0.703111 -0.235784 -0.571534 1.631298 0.842219 -0.590057 -0.111072 1.104680 0.055214 -0.285042 -0.303629
228 0.073350 0.980745 2.134363 0.949723 0.803596 -0.718664 -0.243912 -1.105017 0.321250 0.171776 -0.292879 -0.610910 0.181459 0.279436 0.059733 1.107438 0.415836 -0.736725 0.099140 -0.078177 -0.595305 -0.855983 -0.191808 1.171159 0.806707 -0.340250 -0.910585 -0.424648 -0.508539 0.164427 -0.621712 0.533969 0.867632 0.318414 -0.232137 0.286534 -1.267263 -0.145477 0.993951 0.942943 -0.175886 0.546934 -0.848787 0.433301 0.577620 0.339371 -0.277213 0.199054 0.396681 1.329916
34 -0.282288 0.624016 1.271648 0.664977 0.019076 -0.412790 -1.390055 0.544864 0.098816 -0.243276 -0.498751 -0.231750 -0.020056 0.036219 0.294231 -0.998613 -0.170119 0.168907 0.323686 0.629602 0.039347 0.460912 -0.678471 0.267547 -0.892285 0.435320 -0.265612 0.923222 -0.177157 0.242431 0.310428 -0.437768 0.421827 0.432062 -0.034042 0.771227 -0.027322 0.325319 1.030282 -0.687036 0.166879 0.578848 -0.110179 0.261316 0.342045 0.091146 0.250935 -0.417250 -0.090051 -1.011368
546 -0.046823 0.701300 0.679240 0.468796 0.217079 -0.740425 -0.527960 -0.674918 0.203582 -0.183969 -1.516834 -0.164459 -0.942849 -0.950354 0.517643 0.473187 0.255127 -0.735341 0.378941 -0.371884 -0.358728 -0.988094 1.286184 0.825809 0.923481 0.559474 -0.639293 -0.731307 -0.249191 0.725182 0.831177 1.069302 0.992475 0.164494 0.513550 -1.400927 -0.709694 -0.277236 1.211394 0.412553 1.008681 0.671261 0.506391 -0.145521 -0.071477 -0.116007 0.165866 0.624131 -1.340473 0.587350
3 -0.266253 0.952874 0.959014 -0.120567 -0.965932 -0.272788 -1.662195 0.388718 -0.885144 -0.404531 -0.315459 0.447420 0.578620 0.584670 -0.390855 -0.208455 -0.342028 -0.054442 -0.108499 0.145894 -0.730053 0.052172 -0.311165 -1.177430 -0.457238 -0.122473 -0.140112 -0.288777 0.983702 -1.011141 1.413042 -0.921781 -0.095906 -0.771083 -0.401580 0.516410 -0.749320 -0.444823 -0.109860 -1.376046 0.254528 0.075054 0.383143 0.033034 -0.347930 -0.210057 0.423686 0.048458 0.035790 -1.230660
285 -0.676557 -1.224372 1.985125 0.125009 0.186976 -1.723476 -0.957670 0.010429 0.125753 -0.944750 -0.391138 -0.057091 0.068794 0.712992 -0.190533 -0.249713 -0.218390 0.717717 0.517466 -0.086705 -0.240186 -0.556474 0.052885 0.368932 0.394368 -1.033294 -0.572691 0.266024 0.421033 -1.029969 -0.163525 -0.550430 -0.024833 0.382054 0.111999 -0.821428 0.490865 0.117186 0.751334 0.222479 0.372859 0.326491 -1.067048 0.453508 0.045094 -0.926422 0.696290 0.159633 0.438174 0.642205
1188 -0.942695 0.080377 1.403978 1.014976 0.194289 0.382138 -0.562353 -1.588955 1.413422 -0.136549 -0.179388 0.609343 -0.287540 -0.379057 0.558350 -0.165077 0.565830 -0.636065 -0.960528 -0.115432 -0.353177 -1.584694 -0.341850 0.166350 0.454327 -0.702605 -0.019165 0.295496 0.376436 0.711588 0.504776 0.650370 0.834429 -1.180116 -0.344466 0.257210 -0.797618 -0.186819 0.014810 -0.253664 -0.064657 -0.221944 -0.237821 -0.479755 0.001828 0.220615 0.451318 -0.319721 0.338426 0.796501
69 0.521139 -0.786390 0.482510 1.044331 -0.633260 -0.840654 -0.666181 0.263763 -0.612032 0.397798 -0.677923 0.318477 0.922702 0.813753 -0.906169 -0.165547 0.414275 0.756639 0.981139 -0.565195 0.889886 0.735172 -0.307853 0.321026 -0.551588 -0.785757 0.509851 0.604650 0.534352 0.483217 1.241995 0.641495 0.646168 0.604688 -0.810061 -0.016346 -1.282042 -0.610924 0.736441 -0.999408 1.661713 -0.343296 1.126075 0.152271 -0.250429 0.215941 -0.071396 0.215512 -0.197847 -0.269598
279 -0.301545 0.382889 0.446782 -0.124898 -0.272545 -0.376445 -0.693564 0.094156 -1.288748 -0.904724 -0.312500 -0.729937 0.841058 -0.432988 0.445075 -0.053775 -0.460925 -0.031784 -0.093067 -0.813093 -0.148728 -0.550623 -0.428163 -0.626828 -0.462312 -0.149714 -0.687368 0.496718 0.836968 0.177446 0.725311 0.072030 -0.800905 -1.022012 -0.249692 0.777624 -0.501552 -0.132629 -0.698464 0.173732 0.870920 0.458475 -0.211456 -0.541328 0.273544 -0.001052 0.632135 0.052595 0.692260 -0.567723
785 -0.337236 -0.034872 -0.095619 0.173508 -0.073589 0.147559 0.540350 0.745367 -0.796767 0.263532 -1.589453 -0.676125 1.006324 -0.786053 -0.363721 0.899804 0.029332 -0.900672 1.398405 -0.933633 0.725543 -0.829605 -0.359776 0.359388 -0.894653 -0.100067 0.129398 -0.025236 0.053619 0.333941 1.619262 -0.058198 0.060129 -0.814601 0.417301 -0.200296 0.143909 0.499778 0.300603 -0.411610 -0.811263 0.784133 0.072499 0.128448 1.139919 -0.577056 0.174924 1.155008 -0.143780 -0.234489
314 0.087361 -1.066461 0.678705 0.117908 -0.430230 0.344935 -0.490543 -0.321016 -0.745831 -0.166803 0.866098 -0.029600 -0.210002 0.037300 -0.324540 -0.557109 -0.010192 0.561219 -0.284187 -1.150406 0.000935 0.113751 -0.837414 -0.125826 0.046161 0.952054 -0.902206 0.860662 -1.597446 -0.692404 1.319459 -1.204249 -1.002301 0.457960 0.011807 0.335745 0.669136 0.011958 1.455530 -0.668755 0.413631 0.570472 1.504478 -0.532421 0.622332 -0.014656 0.406885 0.892534 0.625665 -0.303568
394 -0.090547 0.218644 1.232246 -0.038873 -0.297102 0.470431 -0.870840 -0.261511 -0.787784 -0.040006 -0.400704 0.395131 0.673324 0.039263 0.085739 -1.706392 -0.183881 0.116458 -0.682800 0.633834 -0.665766 -0.025346 -0.553406 0.356209 -0.203084 0.382116 -0.403074 -0.813973 -0.357748 0.522776 0.397576 -1.770513 0.762657 -0.267168 -0.682520 0.603257 -0.244747 -0.376750 0.094349 0.685677 0.466178 -0.202472 1.006283 -0.435038 1.698066 -0.830925 -0.035352 0.638644 -0.007360 -0.546421
794 0.837454 0.212516 0.559628 -1.234191 -0.038298 1.049226 -0.324677 -0.575658 -0.211434 0.446952 -0.434908 0.090577 -0.091490 0.346536 0.070747 0.403252 0.132803 0.722145 -0.820043 -0.730417 -0.074706 -0.196347 -0.673239 0.315650 -0.840592 -0.383331 -0.562637 -0.221393 0.010745 -0.337721 -0.463278 -0.405852 0.538914 -0.563729 -1.100198 -0.250059 0.739284 0.056128 0.959822 -0.596635 0.960971 -0.218133 0.119239 -0.100436 0.620606 0.713673 0.856089 -0.140250 0.830104 -0.710050
773 0.541544 0.747030 0.836946 0.816469 0.150854 0.686514 -1.720370 0.372577 0.384227 -1.138138 -0.510589 -0.652182 -0.428701 0.118824 -0.120423 -0.803826 0.605350 -0.380724 -0.305925 0.025834 0.192844 -0.221806 -0.149326 -0.013199 -1.110451 -0.671351 0.376776 -0.934431 0.386055 0.956584 -0.649390 -0.346433 -0.744300 -0.606192 -0.107280 0.623140 -0.663845 -0.956968 -0.783936 -0.233751 -0.584720 0.706376 0.055035 0.517501 1.148970 -0.437184 0.758429 -0.503877 0.289870 0.115874
606 -0.111169 -0.014674 0.295547 -0.170960 -0.055810 -0.415965 -1.431930 -0.404302 0.154533 -0.292973 -0.605143 -0.022026 0.499261 -0.441044 -0.292562 0.191787 -0.394703 0.705074 0.437283 -0.503940 -0.212852 -0.406879 0.076488 0.520827 -0.455874 -0.424644 0.004787 0.242534 -0.113409 -0.030694 -0.165203 -0.607675 0.465244 -0.796664 -0.014851 0.268832 0.174741 0.430930 -0.025531 -0.078221 0.684493 -0.190499 0.005925 0.280610 0.525597 0.285743 1.302698 0.418989 -0.173462 -0.010823
313 -0.298347 1.217002 0.139003 -0.347600 -0.112096 0.503466 -1.055251 -0.137613 0.041155 -0.485517 -1.283945 -0.870128 -0.248579 -0.139074 0.899077 -0.732427 -0.286744 -0.449907 0.035522 -1.221288 0.018836 -0.478625 1.115861 -0.351474 -1.104535 0.241065 0.097480 -0.381239 0.203600 0.176487 -0.558683 0.928660 0.255979 -0.575277 1.014351 0.828474 0.778502 0.767874 -0.718794 0.286545 0.576365 1.112226 -0.610453 -0.035533 1.001034 -0.515667 1.145357 -0.699566 0.341455 -0.317600
277 -0.128841 0.824270 0.188505 -0.022593 -0.367077 -0.238134 0.156856 0.188533 -0.755543 0.244953 -0.276146 -0.501883 0.747619 -0.128612 0.274070 0.096023 -0.883796 0.521431 0.149227 -0.374840 -0.242582 -1.218013 -0.506339 -0.968028 -1.320055 -0.181731 -0.415897 -0.089122 0.028914 -0.755408 0.588226 -0.528752 -0.431711 -0.579688 -0.109877 0.245215 0.498103 0.591459 0.511012 -0.416055 0.059078 -0.611624 0.506428 0.073100 1.048854 0.398144 0.566926 -0.271525 -0.574148 0.228283
595 -1.105098 0.896435 -0.046562 0.242125 0.637133 0.059210 0.048568 -0.382987 -0.105688 -0.007940 -0.610996 0.595172 0.500515 -0.264120 1.150561 0.368710 -0.760034 1.072167 0.863228 -0.773339 0.438329 -0.852123 0.051415 -0.254850 -0.648735 -0.518310 0.260636 0.225296 -0.204651 -0.054539 -0.047600 -0.436612 0.053956 -0.422968 -0.193851 -0.523676 0.271182 0.122768 0.482981 -0.038666 0.138347 -0.774905 1.057418 0.169021 0.622310 0.221559 1.194722 0.276588 -0.935474 -0.182859
42 -0.612303 -0.807496 0.655187 -0.240610 0.590080 -0.341610 0.715984 -0.226358 -0.114468 -0.593773 -0.467662 0.649010 -0.184686 -0.422710 -0.791626 0.007469 -0.891018 -1.226011 2.239652 0.083862 -0.302679 0.219366 0.594012 0.638379 -0.161081 -0.203610 -1.342805 0.436538 0.617895 1.198315 -1.179675 0.400829 0.517988 1.140829 -0.475666 0.239515 2.110168 1.494814 -1.868872 1.344420 -0.310617 1.290432 0.791141 0.740859 1.054682 0.149784 1.739973 2.147287 -0.149014 0.018308
781 0.330974 0.626646 1.472651 0.926857 1.587741 -1.324862 -0.274828 -0.446656 -0.197234 0.142316 -1.044499 -0.643384 -0.124338 -0.836137 1.151049 1.258565 0.070431 -0.828600 0.617261 -0.702169 -0.077488 -1.011152 0.402625 0.522121 -0.633909 -0.933271 -0.334595 -0.612093 0.405563 -0.059823 0.720557 0.156112 1.449052 0.639755 -0.312894 -1.758031 -0.077181 0.045761 1.051842 0.876036 0.174360 0.736385 0.340055 -0.133930 0.090007 -0.067895 -1.311086 -0.086662 1.052081 0.263947
336 0.326423 0.734551 1.186476 0.175320 -0.041887 -0.395896 -0.392706 -1.009317 0.490323 0.205578 -1.538916 -0.069375 -0.794958 0.130029 0.337668 0.449284 0.286470 -0.384424 0.265970 -0.522045 -0.901407 -0.895973 0.999631 1.439992 1.451508 0.136656 -0.693271 -0.104733 -0.644704 0.672130 1.024972 0.899721 0.622086 0.511350 0.115126 -0.413634 -1.317888 0.021606 1.123642 -0.163475 0.620307 0.943440 -0.148063 -0.262950 -0.448165 0.198443 -0.024239 0.503980 -1.028900 0.992222
264 -0.633863 0.891491 0.450209 0.531050 -0.754781 0.827071 -1.106482 -0.572681 -1.581169 -0.222414 0.009065 0.569720 0.868356 -0.017671 -1.215345 0.508640 -0.666691 -0.221146 0.402861 -0.286117 -1.834472 0.850006 0.522901 -0.914546 0.792893 0.203787 -0.811680 -0.836297 -0.884860 0.111841 -0.614270 -0.004333 -0.746895 0.277919 -0.477130 0.336987 -1.709005 0.169808 -0.779078 0.733315 -0.572170 -0.011961 -1.171823 -0.797372 -1.055119 0.464756 -0.278810 0.521229 0.588683 -0.254324
350 -0.484303 0.227221 1.419186 0.287816 -0.264312 0.198141 -0.680822 0.280116 -0.129726 -0.660488 -0.590480 0.376753 -0.098521 -0.152209 -0.319812 0.336352 -0.002099 0.557787 -0.575921 1.134855 0.125600 -0.193117 0.294953 -0.204114 -0.728969 -0.741882 -0.554784 -0.373812 0.692993 -0.141360 0.615387 0.451898 0.319378 0.246939 -1.223462 -0.295265 0.060099 0.183693 0.273960 -0.530996 0.687157 0.083018 0.091733 -0.090700 -0.004733 -0.506291 1.101634 -0.448998 -0.161850 -0.565374
121 -0.458425 0.409020 0.897038 0.706335 -0.619912 -0.068918 -0.801611 0.118838 -0.127985 -0.296562 -1.371331 -1.029861 -0.534318 -0.897584 0.134097 -0.040618 0.117579 -0.483741 -0.388416 0.548139 0.222716 0.412127 1.102496 -0.173062 -0.666148 1.759220 -1.341948 -1.148756 -0.483461 0.228879 -1.021975 1.153912 0.678133 -0.643214 0.629360 -0.979693 -0.041538 -0.007523 -0.736950 0.558323 0.841536 -0.908200 -1.850926 -0.194917 -0.028412 0.946289 0.964420 0.029361 0.447156 -0.234854
354 -1.012496 -0.447569 1.662163 0.339807 -0.874024 0.167192 -0.780277 0.374756 1.118232 0.536606 -0.007073 0.531687 -0.986686 -0.438489 -0.238516 -0.547430 -0.099001 -0.507132 -0.622367 -0.198012 -0.507405 -0.411278 0.424155 1.094773 0.433134 -0.455536 -0.109057 -1.050198 -1.450430 -0.006244 -0.275528 0.176362 1.248284 -0.350512 1.196792 0.870085 -0.047500 -0.317656 -0.040796 0.467193 -0.775189 -0.563458 -0.498266 0.723631 -0.711938 -0.526869 1.470820 0.307335 1.171969 -0.333752
14 -0.184126 -0.197623 0.590560 0.929916 -0.464896 0.619255 -1.977967 -0.266084 -0.053004 -0.091973 0.039868 -0.333229 0.662156 -0.423020 -0.224213 0.273357 -0.020196 -0.159220 -0.692922 -0.658622 0.267485 -0.436948 0.606504 -0.384988 -0.429309 -0.290288 -0.674042 0.025608 0.701573 -0.623733 0.629156 -0.094624 -0.048067 -0.991453 -0.518233 0.223024 0.265484 -0.647084 0.231390 -0.186316 1.132963 0.277197 0.269207 -0.275443 0.257873 -0.049976 0.263647 -0.028026 -0.305383 -0.365231
618 0.172019 -0.190118 0.068647 1.013779 -0.159892 0.339572 -0.526005 -0.142673 -0.260656 -0.336822 -1.119173 -0.599877 -0.087621 -0.742421 0.077231 -0.908956 0.269174 0.905909 -0.824636 0.231947 0.031260 -0.145018 -0.184631 0.212317 -0.376530 -0.884423 0.462351 -0.134737 -0.988139 0.107953 -0.356256 -0.220652 0.973561 -0.505969 -0.581803 0.050449 0.104069 0.620572 0.614921 0.438362 -1.555351 0.203213 1.158975 0.029666 -0.226211 0.514598 0.856266 -0.124319 0.023053 -0.789169
92 -0.165879 -0.042253 1.369965 0.239338 -1.047427 1.894107 -0.980976 0.961025 -0.326460 -0.405193 -0.210839 0.759640 -0.017392 0.223620 -1.267317 0.259375 0.010995 0.540368 0.688711 -0.816964 -0.461602 0.484210 0.528368 -0.094887 0.489791 -0.142571 -0.342569 -0.979083 -1.572118 -0.602864 -0.137009 0.115111 1.021318 -0.055156 0.073445 -0.164486 -0.439407 1.124148 -0.743451 0.693177 -0.256864 0.456163 -0.527188 -0.282718 -0.439137 -0.242554 0.866179 -0.535731 0.456820 -0.029451
552 0.150609 -0.694380 1.446278 0.242781 -0.357991 0.251611 -0.669096 0.066168 -0.627273 -1.089422 -0.441813 -1.458809 -1.179200 -0.200396 -0.633114 -0.927935 0.387459 -0.239346 -0.105288 -1.153883 -0.345036 0.651017 -0.013813 1.014361 -1.337236 -1.234340 0.693503 0.386382 -0.063566 0.581275 -0.553894 0.040363 0.309319 -0.522591 0.037399 -0.758275 1.143534 0.028604 0.225154 -0.134834 0.580293 0.663168 -0.695447 -1.189851 0.210243 -0.616467 0.299658 0.351034 -0.202728 0.156738
922 0.143376 0.255759 -0.328931 0.847466 -0.155948 0.588238 -1.090523 -0.033000 -0.199307 -0.056249 0.196680 -1.435204 0.844552 -0.066722 0.582967 -0.052607 -0.558669 0.233384 -0.511810 -1.723344 0.275796 -0.652604 -0.805152 -0.914315 -0.575726 -0.126194 -0.087218 0.119128 0.204543 -0.716821 1.285152 -0.214233 -0.579065 -0.690712 -0.301728 0.347941 0.595225 -0.349744 0.056611 -0.424924 0.723230 0.568414 1.640761 -0.809975 0.430515 0.090082 -0.317849 -0.368886 1.519463 -0.861422
266 -0.508163 0.183228 1.068448 0.351433 -0.400075 1.973947 -0.679548 1.130681 0.536565 -0.235228 -0.353020 -0.094124 -0.502360 0.089518 -0.464562 -0.016397 -0.242106 0.104941 0.028824 -0.940755 -0.238726 -0.729729 0.488879 0.008325 0.233899 -0.147043 -0.312014 -0.448260 -0.683066 -0.478578 0.442908 0.321124 1.012548 -0.129293 0.630086 0.129347 0.589071 0.449357 -0.721125 0.613828 1.092012 1.042506 -0.655981 -0.240619 0.334000 -1.174829 1.292608 -0.644916 -0.333223 0.185462
